2768 100
obsolete -0.001 -0.003 0.005 0.003 -0.001 0.005 0.003 0.001 0.003 -0.003 -0.001 0.002 -0.001 -0.000 -0.005 -0.001 -0.000 0.003 -0.002 0.001 0.000 -0.001 -0.005 0.003 0.001 -0.005 0.002 -0.004 -0.004 -0.005 -0.005 0.001 0.003 0.001 -0.004 -0.000 0.004 0.001 -0.002 -0.003 0.003 -0.003 0.003 -0.005 -0.005 0.002 -0.002 0.001 -0.005 -0.003 0.002 -0.002 -0.001 -0.000 -0.003 -0.000 -0.001 -0.003 -0.005 -0.004 0.002 -0.004 0.001 -0.001 0.005 -0.002 -0.003 -0.000 -0.000 -0.005 -0.001 -0.003 0.000 0.002 0.000 -0.001 0.005 0.002 -0.003 -0.005 -0.000 -0.003 -0.003 0.004 0.005 -0.005 -0.000 0.002 -0.001 -0.004 -0.001 -0.002 0.000 0.003 -0.003 -0.002 0.004 0.005 -0.002 0.003 
property 0.005 0.003 0.005 0.001 0.007 -0.000 -0.001 0.007 -0.001 -0.010 0.002 0.001 -0.005 -0.003 -0.001 -0.000 0.002 -0.003 -0.009 0.001 -0.001 0.002 0.001 -0.004 0.002 -0.001 0.007 0.003 0.004 0.003 0.002 0.001 0.005 0.003 0.001 0.000 -0.003 0.005 -0.004 -0.003 0.004 0.003 0.004 -0.005 -0.001 0.002 0.002 -0.002 0.001 0.006 -0.001 -0.000 0.003 -0.006 -0.004 -0.000 0.003 0.007 0.001 -0.001 -0.003 0.005 0.003 0.000 -0.006 0.002 0.000 0.006 -0.005 0.004 0.002 0.001 0.002 -0.006 -0.007 0.001 0.006 0.000 0.007 0.005 0.002 0.005 0.002 -0.004 -0.000 -0.001 0.002 0.003 0.004 0.001 -0.005 0.000 -0.005 0.005 0.001 -0.001 0.003 0.000 -0.006 0.002 
started 0.005 0.000 0.000 0.002 0.003 0.002 0.001 0.003 -0.005 0.003 -0.004 0.004 -0.004 0.001 -0.004 -0.003 0.005 -0.004 -0.001 0.004 -0.000 -0.001 0.004 0.003 0.004 0.003 -0.001 0.003 -0.001 0.004 0.004 -0.004 -0.004 -0.003 0.000 0.004 -0.004 -0.002 -0.005 0.005 0.003 -0.003 0.004 0.000 -0.001 -0.002 -0.000 -0.004 -0.000 0.005 0.002 0.003 -0.001 -0.002 -0.001 0.001 -0.000 0.005 0.002 -0.004 0.000 -0.000 0.004 0.004 0.001 0.003 0.001 -0.001 0.003 -0.005 -0.004 0.001 -0.001 -0.001 0.001 -0.002 0.004 -0.005 0.005 0.003 0.002 0.000 0.004 -0.001 0.003 -0.004 -0.000 -0.003 0.001 0.003 0.000 -0.000 0.005 0.004 -0.004 0.001 -0.002 -0.004 0.001 -0.002 
by 0.005 0.001 -0.001 0.003 0.015 0.016 0.009 0.016 0.007 -0.024 0.009 -0.011 -0.010 -0.002 -0.018 0.005 0.017 0.004 -0.020 -0.013 0.008 -0.001 -0.010 -0.003 0.006 0.001 0.027 -0.004 0.006 0.015 -0.001 0.005 0.016 0.013 -0.001 -0.008 0.003 0.005 -0.004 0.008 -0.006 0.006 0.012 0.001 -0.002 -0.007 0.008 0.008 0.012 0.024 -0.007 0.010 0.014 -0.020 -0.004 -0.008 0.015 0.024 0.006 0.001 -0.000 0.002 0.001 0.007 -0.006 0.008 0.004 0.012 0.000 0.000 0.017 -0.001 0.012 -0.017 -0.020 0.030 0.002 -0.014 0.030 0.031 0.005 0.013 0.010 -0.013 -0.003 0.000 0.023 0.002 0.002 -0.016 -0.019 0.027 -0.004 -0.004 0.020 0.011 0.011 -0.008 -0.008 0.007 
is 0.005 0.006 0.011 0.003 0.018 0.024 0.021 0.027 0.008 -0.042 0.000 -0.018 -0.007 -0.003 -0.033 0.016 0.030 0.001 -0.032 -0.024 0.008 -0.010 -0.021 0.001 0.000 0.004 0.033 -0.006 0.007 0.034 -0.002 0.020 0.022 0.007 0.009 -0.011 0.006 0.003 -0.013 0.006 -0.000 -0.001 0.021 0.003 -0.005 -0.004 0.001 0.019 0.009 0.031 -0.015 0.012 0.028 -0.034 -0.000 -0.020 0.017 0.047 0.020 0.001 -0.010 0.002 -0.004 0.006 -0.013 0.016 0.014 0.017 -0.004 -0.005 0.031 0.009 0.017 -0.018 -0.030 0.051 0.014 -0.030 0.046 0.045 0.005 0.018 0.015 -0.026 -0.008 -0.000 0.035 0.014 -0.001 -0.025 -0.027 0.041 -0.002 0.004 0.032 0.016 0.011 -0.009 -0.018 0.012 
sister -0.005 0.005 -0.001 0.000 0.002 -0.003 0.004 -0.003 -0.004 0.002 0.004 -0.002 0.005 0.000 0.001 0.000 -0.002 0.005 -0.003 -0.003 -0.002 -0.002 0.002 -0.002 -0.001 -0.000 -0.003 0.004 0.004 0.005 -0.002 0.005 0.001 0.005 -0.002 0.001 0.004 0.003 -0.002 0.005 -0.005 0.002 0.000 0.003 -0.000 0.003 -0.001 0.000 0.003 0.004 0.002 -0.002 -0.003 -0.004 0.005 -0.002 0.005 0.005 0.005 0.000 0.001 0.004 0.002 -0.004 -0.001 -0.002 0.004 -0.002 -0.003 0.001 -0.002 0.004 0.002 -0.003 -0.003 0.002 -0.002 0.001 0.000 0.005 0.003 -0.004 -0.003 -0.002 0.003 0.002 0.003 -0.004 -0.004 0.002 0.001 0.006 0.004 -0.004 -0.000 -0.001 -0.005 0.003 -0.005 -0.004 
of 0.005 -0.004 0.002 0.008 0.019 0.015 0.012 0.019 -0.002 -0.034 0.004 -0.017 -0.004 -0.004 -0.027 0.017 0.027 0.005 -0.029 -0.015 0.004 -0.005 -0.017 -0.006 0.008 0.004 0.030 -0.000 0.013 0.025 0.000 0.014 0.018 0.012 0.007 -0.003 0.007 0.002 -0.010 0.001 -0.003 -0.000 0.014 0.002 -0.008 -0.006 0.004 0.018 0.015 0.027 -0.003 0.010 0.026 -0.027 0.004 -0.021 0.019 0.034 0.014 0.003 -0.010 0.003 0.002 0.005 -0.008 0.017 0.003 0.012 0.003 -0.001 0.026 0.002 0.013 -0.015 -0.025 0.042 0.011 -0.025 0.042 0.042 -0.000 0.019 0.010 -0.016 -0.007 0.000 0.022 0.011 0.005 -0.014 -0.026 0.034 -0.002 0.004 0.020 0.020 0.008 -0.005 -0.015 0.005 
has -0.003 0.004 0.010 0.004 0.021 0.015 0.016 0.028 0.000 -0.036 0.003 -0.016 -0.007 -0.001 -0.031 0.016 0.023 0.008 -0.033 -0.022 0.010 -0.012 -0.014 -0.005 0.006 0.004 0.032 -0.004 0.014 0.030 0.006 0.019 0.017 0.008 0.004 -0.013 0.006 -0.001 -0.015 0.004 -0.008 0.007 0.016 0.002 -0.003 -0.012 0.007 0.021 0.012 0.023 -0.009 0.005 0.028 -0.035 0.003 -0.017 0.019 0.041 0.018 0.006 -0.007 0.009 -0.003 0.005 -0.012 0.018 0.007 0.024 0.001 0.003 0.025 0.007 0.015 -0.016 -0.028 0.046 0.013 -0.027 0.042 0.045 0.008 0.016 0.021 -0.021 -0.015 -0.007 0.030 0.009 0.002 -0.021 -0.033 0.033 -0.008 -0.002 0.023 0.021 0.012 -0.008 -0.018 0.014 
manager -0.005 0.002 0.002 0.004 0.003 0.001 0.004 0.006 0.002 -0.004 0.001 0.003 -0.002 -0.003 0.003 0.000 -0.002 -0.004 -0.000 -0.002 0.002 -0.005 0.002 0.001 -0.005 0.003 -0.002 0.003 0.001 0.000 0.003 -0.001 0.003 -0.004 -0.001 0.002 -0.004 -0.004 0.002 0.003 -0.002 0.005 0.005 -0.002 -0.001 -0.002 -0.004 -0.004 -0.003 0.001 0.003 0.005 -0.003 -0.002 -0.003 0.001 -0.001 0.005 -0.001 -0.002 -0.005 0.002 -0.001 0.004 0.001 0.005 0.001 0.005 0.001 0.003 0.001 -0.003 -0.001 -0.003 -0.005 0.003 0.004 -0.003 0.004 -0.000 0.000 0.006 -0.003 -0.005 -0.001 -0.000 0.005 -0.004 -0.001 -0.000 0.002 -0.002 0.002 -0.004 0.005 -0.000 -0.001 0.001 0.002 0.002 
location -0.003 0.003 0.004 0.006 0.001 0.008 0.005 0.010 0.005 -0.006 -0.004 -0.007 -0.003 -0.005 -0.000 0.003 0.003 -0.004 -0.001 -0.004 0.002 -0.003 -0.000 0.002 -0.002 -0.002 0.006 0.003 0.003 0.006 0.000 -0.001 0.004 -0.001 0.004 -0.006 -0.001 0.002 -0.002 0.001 -0.006 -0.000 -0.001 -0.004 -0.001 0.002 0.000 -0.000 0.006 0.001 -0.002 0.005 0.004 -0.011 0.005 -0.006 0.005 0.006 0.008 0.000 -0.003 0.006 -0.002 0.003 0.002 0.007 0.005 -0.000 0.001 -0.003 0.003 0.000 0.002 -0.005 -0.003 0.011 0.000 -0.004 0.012 0.013 0.003 0.008 0.007 -0.001 -0.005 -0.005 0.004 0.005 -0.001 -0.002 -0.002 0.010 0.004 -0.001 0.005 0.007 0.001 -0.005 -0.005 0.003 
competitor -0.002 -0.001 -0.000 0.005 0.004 0.005 0.004 0.004 -0.002 -0.001 0.003 -0.004 -0.003 -0.005 -0.003 -0.000 0.003 0.002 -0.004 0.001 -0.001 0.003 0.000 -0.003 -0.002 0.004 0.004 -0.001 -0.003 0.004 -0.004 0.001 -0.004 0.004 0.001 -0.005 0.003 0.002 -0.001 -0.003 -0.005 0.003 -0.001 0.003 -0.003 0.001 -0.001 -0.004 0.001 0.003 0.001 -0.003 -0.002 0.002 -0.004 0.003 0.004 -0.000 0.001 0.004 -0.003 -0.000 -0.003 -0.000 0.003 -0.003 0.002 -0.003 -0.000 -0.002 0.005 -0.001 -0.003 0.001 0.003 0.006 0.004 -0.003 -0.001 -0.003 -0.002 0.005 -0.004 -0.002 0.001 -0.001 -0.001 -0.001 0.003 -0.003 -0.004 0.004 -0.002 -0.001 0.000 0.003 0.004 0.005 -0.002 -0.000 
finishes 0.001 -0.004 -0.004 0.005 -0.004 0.005 -0.002 -0.002 0.003 -0.001 -0.000 0.004 -0.001 0.000 -0.005 -0.004 -0.003 -0.002 -0.000 0.004 0.004 0.000 -0.004 -0.004 0.001 0.003 -0.001 -0.002 0.002 0.001 0.002 0.002 -0.003 -0.004 -0.003 0.002 -0.005 0.005 -0.002 -0.005 0.005 -0.004 0.003 -0.001 0.003 -0.001 0.003 -0.001 0.002 0.002 0.002 0.003 -0.000 0.001 -0.004 0.003 -0.002 0.001 0.001 0.005 0.002 0.002 -0.004 -0.001 -0.003 0.003 -0.003 0.002 -0.001 0.003 -0.003 0.005 -0.001 0.004 0.003 0.006 -0.005 0.003 0.000 0.000 0.002 0.004 -0.002 -0.002 -0.005 0.003 -0.002 -0.002 0.001 -0.002 -0.002 0.004 0.001 -0.002 -0.003 0.005 0.001 0.005 0.001 0.001 
temporally -0.002 0.002 0.005 -0.003 -0.003 0.004 0.004 -0.002 0.004 -0.004 -0.002 -0.006 -0.004 0.004 -0.004 -0.002 0.005 -0.002 -0.001 -0.003 -0.001 0.003 0.004 0.002 0.001 0.001 0.001 -0.001 0.003 0.004 0.005 0.003 -0.004 0.002 0.001 0.003 -0.001 0.004 0.002 -0.001 0.002 0.002 0.006 0.000 -0.002 -0.004 0.000 0.002 0.003 -0.001 -0.003 -0.004 0.002 -0.003 -0.002 0.004 -0.003 -0.002 0.004 0.005 -0.005 0.003 -0.004 0.001 0.002 0.000 0.004 0.003 0.004 0.001 0.004 -0.001 0.005 -0.005 0.002 0.001 -0.003 -0.000 0.005 0.007 -0.001 -0.002 0.003 0.003 -0.003 -0.003 -0.001 0.004 0.005 -0.001 -0.001 0.005 0.005 -0.004 -0.004 0.003 0.002 0.001 -0.006 0.004 
related -0.001 0.002 0.004 0.002 0.003 0.004 0.002 0.007 0.005 -0.004 0.003 -0.004 -0.002 0.002 -0.004 0.001 0.003 0.004 -0.003 -0.003 0.006 -0.002 -0.000 0.001 -0.004 -0.003 0.006 -0.000 0.002 -0.000 0.002 0.006 0.000 0.003 0.001 0.001 -0.001 -0.000 -0.000 0.005 -0.003 0.000 0.005 0.000 -0.004 -0.005 0.003 -0.001 -0.003 0.005 0.002 -0.001 -0.002 0.000 -0.004 -0.000 0.007 0.004 0.005 0.001 -0.000 -0.004 0.004 0.001 -0.001 0.000 0.002 0.004 -0.004 0.002 -0.001 -0.001 0.002 -0.006 -0.007 0.005 0.005 -0.001 0.002 0.007 -0.001 -0.003 0.004 -0.003 0.004 -0.004 0.005 -0.000 -0.003 -0.006 -0.003 0.008 0.000 0.002 0.004 0.004 0.005 -0.003 -0.001 -0.001 
to 0.003 -0.002 0.006 0.003 0.007 0.015 0.012 0.014 0.002 -0.026 0.003 -0.009 -0.004 -0.001 -0.011 0.013 0.019 -0.002 -0.015 -0.010 0.007 -0.007 -0.006 -0.004 0.002 0.002 0.018 -0.002 0.007 0.019 0.004 0.008 0.016 0.007 0.004 -0.009 0.009 -0.001 -0.011 0.007 -0.005 0.003 0.006 0.001 -0.003 -0.004 0.003 0.011 0.006 0.014 -0.002 0.007 0.013 -0.025 0.005 -0.014 0.007 0.026 0.012 -0.001 -0.008 0.005 0.000 0.007 -0.008 0.012 0.002 0.013 0.000 -0.001 0.013 0.003 0.006 -0.012 -0.016 0.031 0.004 -0.011 0.021 0.032 0.006 0.013 0.009 -0.009 -0.010 0.001 0.020 0.002 0.005 -0.016 -0.012 0.026 -0.005 0.002 0.017 0.016 0.011 -0.000 -0.015 0.010 
system -0.005 -0.000 0.002 0.005 0.001 -0.002 0.004 0.000 -0.002 -0.004 -0.003 0.002 -0.001 -0.003 -0.003 -0.001 0.005 -0.003 -0.006 0.002 0.005 -0.000 -0.005 -0.002 -0.004 0.003 -0.000 0.002 -0.004 0.000 0.000 0.006 -0.003 0.002 -0.000 -0.001 -0.001 -0.002 0.003 -0.004 0.001 -0.005 0.001 -0.001 0.004 0.001 -0.004 -0.000 -0.003 0.004 0.002 -0.002 -0.002 -0.001 -0.000 -0.004 -0.003 0.002 0.003 0.003 -0.002 -0.002 -0.001 -0.003 0.004 -0.003 0.003 0.003 0.000 -0.003 0.005 -0.002 0.002 -0.006 -0.004 0.006 0.005 -0.006 -0.000 0.001 0.005 0.005 0.006 0.001 0.001 -0.003 0.003 0.001 0.002 -0.001 -0.006 -0.002 -0.005 -0.002 0.006 -0.002 -0.002 -0.000 -0.005 0.001 
administrator 0.001 -0.004 -0.004 0.004 -0.001 0.000 0.001 -0.000 -0.002 -0.005 -0.004 0.002 0.005 0.003 -0.004 0.001 0.002 0.000 -0.003 -0.001 -0.003 -0.005 -0.000 -0.003 0.003 -0.004 -0.000 0.005 0.000 -0.001 0.001 0.001 0.002 0.004 0.000 -0.003 -0.004 -0.002 0.004 -0.002 0.003 0.001 -0.001 0.001 -0.002 0.001 0.004 -0.004 0.002 0.003 -0.002 -0.005 0.002 -0.002 0.004 -0.001 -0.001 -0.003 -0.003 0.003 -0.002 0.004 0.002 0.002 0.001 -0.002 0.002 0.002 0.003 0.004 0.005 -0.001 -0.003 -0.001 -0.005 -0.003 0.005 -0.003 0.006 0.001 -0.002 0.005 0.003 -0.000 0.004 0.003 0.003 -0.003 -0.001 0.002 -0.005 0.004 -0.004 -0.003 0.005 0.005 0.001 -0.000 -0.003 0.000 
object -0.004 -0.003 0.002 -0.002 0.010 0.009 0.008 0.013 0.003 -0.008 -0.001 -0.010 0.002 0.002 -0.006 0.001 0.009 0.003 -0.010 -0.003 0.001 -0.000 -0.003 0.003 0.002 0.000 0.016 -0.006 0.003 0.009 0.002 0.003 0.004 0.009 -0.003 -0.001 0.000 -0.003 0.001 0.007 0.003 -0.003 0.004 0.004 -0.005 0.003 -0.000 0.009 0.007 0.010 -0.006 0.000 0.007 -0.011 0.004 -0.002 0.004 0.015 0.006 0.004 0.001 0.005 -0.003 -0.001 0.002 0.008 0.005 0.009 -0.002 0.001 0.004 0.006 0.003 -0.001 -0.006 0.010 0.004 -0.012 0.014 0.018 -0.002 0.008 0.007 -0.010 -0.007 -0.003 0.007 -0.001 0.006 -0.007 -0.008 0.009 -0.005 -0.002 0.008 0.003 0.004 0.000 -0.009 0.007 
education -0.004 -0.004 0.005 0.000 -0.001 0.004 0.005 0.006 -0.002 -0.005 0.001 0.002 0.001 0.005 -0.002 -0.004 0.006 -0.002 -0.001 -0.001 0.004 0.001 -0.003 0.004 0.003 -0.004 -0.000 -0.002 -0.002 0.003 -0.002 0.001 0.001 -0.001 0.001 -0.002 0.005 -0.000 -0.005 -0.004 -0.003 0.001 -0.003 0.004 -0.003 -0.002 -0.003 0.003 0.002 -0.002 0.003 0.002 0.004 -0.005 -0.000 0.002 -0.003 0.003 -0.003 -0.000 -0.004 -0.001 -0.003 0.002 0.000 0.005 0.000 0.001 0.003 0.000 -0.001 0.001 0.005 0.001 -0.005 0.002 -0.002 -0.000 0.005 -0.001 -0.003 0.002 -0.001 -0.000 -0.001 0.000 0.002 -0.002 -0.002 -0.004 -0.005 -0.003 0.004 0.003 0.002 -0.001 0.001 -0.001 -0.004 -0.004 
employspeciesee 0.004 0.001 0.004 0.000 -0.005 -0.004 0.001 0.004 0.005 0.001 -0.001 -0.003 -0.005 -0.002 0.001 0.002 -0.004 0.005 0.002 0.004 0.004 -0.005 -0.003 -0.001 -0.005 0.002 0.002 0.003 -0.002 -0.001 0.003 0.003 0.001 -0.003 -0.005 -0.002 -0.001 0.004 -0.004 0.004 -0.002 -0.001 0.002 -0.002 -0.002 -0.004 0.001 -0.004 0.000 -0.002 0.002 -0.001 -0.003 -0.002 -0.004 -0.002 0.002 0.001 0.004 -0.003 -0.004 -0.005 0.003 0.004 0.001 0.001 0.001 -0.005 -0.004 0.000 0.004 -0.000 0.001 -0.000 0.002 0.004 0.001 -0.004 -0.002 0.001 -0.002 0.003 0.001 -0.000 -0.001 0.003 -0.005 0.001 0.002 -0.003 0.000 0.005 0.001 0.005 0.003 -0.002 -0.001 0.001 -0.005 -0.003 
chief -0.001 -0.001 0.000 -0.001 -0.001 0.004 0.003 0.000 -0.000 -0.005 -0.000 -0.003 0.004 -0.000 0.002 -0.001 0.001 0.001 0.001 0.003 -0.002 0.001 -0.001 0.005 -0.003 0.002 0.004 -0.000 -0.001 -0.000 -0.004 0.001 0.006 -0.003 0.001 -0.002 0.003 -0.002 0.003 -0.001 -0.001 0.001 0.002 0.004 0.005 0.001 -0.004 0.003 -0.002 0.001 -0.005 0.001 0.004 0.001 -0.004 -0.006 -0.001 0.007 0.003 0.003 0.002 0.001 -0.003 -0.004 0.002 -0.003 0.005 0.005 -0.002 -0.002 -0.001 -0.001 0.001 0.003 -0.003 0.006 0.005 -0.004 0.006 0.006 -0.002 -0.003 -0.001 -0.006 -0.000 0.003 0.005 0.003 0.001 -0.003 -0.003 0.005 0.004 -0.002 0.001 0.001 -0.001 -0.002 -0.004 0.002 
technical 0.001 0.004 -0.003 0.005 0.001 0.005 0.004 0.001 0.004 -0.005 0.004 -0.003 0.005 0.004 -0.001 -0.003 -0.004 0.004 -0.001 -0.002 -0.000 0.004 0.002 0.002 -0.001 -0.001 0.003 0.004 0.003 0.003 -0.004 -0.000 -0.003 0.003 0.002 -0.000 -0.001 -0.004 -0.001 -0.004 -0.002 -0.002 0.002 -0.002 0.002 0.001 0.000 -0.001 0.005 0.002 -0.005 0.001 0.003 -0.001 0.005 -0.001 -0.000 0.004 -0.002 0.002 0.001 0.002 -0.000 -0.001 -0.005 -0.001 0.005 0.001 -0.004 -0.002 0.005 -0.001 -0.002 0.004 -0.004 0.001 0.001 0.003 0.004 0.005 0.001 0.003 0.003 0.001 -0.003 -0.000 0.004 0.001 -0.003 0.003 -0.001 -0.003 0.003 -0.004 0.001 0.004 0.001 0.003 0.002 -0.002 
officer 0.000 -0.003 0.003 0.002 0.004 0.005 0.001 0.005 0.004 -0.006 0.004 0.001 -0.003 0.000 -0.002 0.002 0.005 -0.001 -0.004 0.004 0.003 0.004 -0.003 -0.003 0.004 -0.004 0.001 -0.005 0.003 0.001 -0.002 0.004 -0.001 -0.004 -0.003 -0.005 -0.001 0.004 0.001 0.001 0.001 0.000 -0.001 -0.001 -0.003 0.002 0.004 0.001 -0.001 0.002 -0.003 0.006 -0.004 -0.003 -0.005 -0.001 0.000 0.002 0.004 0.000 -0.004 0.001 -0.004 0.005 -0.005 0.001 0.001 0.005 0.003 0.004 0.002 -0.002 0.002 0.002 -0.001 0.007 -0.004 -0.004 0.004 -0.002 0.000 -0.000 0.004 -0.001 0.003 0.003 0.001 -0.002 0.004 0.000 -0.006 -0.002 0.005 0.002 0.004 -0.004 0.006 0.003 -0.005 -0.001 
actor -0.004 -0.003 -0.004 -0.004 0.000 0.001 -0.004 -0.001 -0.000 0.003 0.002 0.000 0.000 0.004 -0.001 -0.001 -0.000 0.001 -0.003 0.003 -0.001 -0.004 -0.005 0.000 0.003 -0.001 0.004 -0.001 0.002 -0.004 -0.000 -0.003 -0.001 -0.002 0.000 -0.001 -0.003 0.000 0.003 0.002 -0.005 -0.000 0.002 0.004 0.001 -0.001 -0.001 0.003 0.001 0.002 -0.003 -0.004 -0.002 0.003 0.004 -0.002 0.001 -0.001 0.005 0.002 0.000 0.000 0.003 0.005 -0.004 -0.003 -0.001 0.004 -0.000 -0.004 0.004 0.002 -0.002 0.003 -0.002 0.003 -0.002 0.002 0.004 0.004 0.005 -0.002 0.002 0.002 -0.001 0.001 0.001 0.001 0.001 0.003 0.003 -0.003 0.004 0.002 -0.002 -0.004 0.001 -0.000 0.002 0.004 
software -0.003 -0.000 0.001 0.000 0.002 -0.003 -0.001 -0.004 -0.001 0.004 -0.002 0.002 0.003 0.000 -0.001 -0.001 0.003 0.002 -0.004 -0.001 0.002 -0.002 0.000 -0.004 0.001 -0.002 -0.003 0.005 0.005 -0.004 0.001 -0.001 0.003 0.000 0.004 0.001 0.000 0.003 -0.003 0.003 0.004 0.005 -0.000 -0.002 -0.000 0.005 -0.000 -0.003 -0.000 0.005 -0.001 0.003 -0.001 -0.002 -0.001 0.003 -0.003 -0.003 -0.002 -0.003 0.001 -0.000 0.002 -0.003 0.001 -0.001 0.000 0.002 -0.005 0.001 0.001 -0.003 -0.004 -0.001 -0.001 0.000 -0.004 -0.002 0.005 0.003 0.004 0.002 -0.000 -0.004 -0.001 -0.001 0.003 0.004 0.003 -0.002 0.003 0.005 -0.003 -0.003 -0.003 0.001 0.003 -0.005 -0.002 0.000 
developer 0.003 -0.001 0.001 0.002 0.002 -0.002 -0.003 -0.002 -0.003 -0.002 -0.003 0.002 0.004 -0.001 -0.000 -0.002 0.001 0.002 -0.005 0.003 0.004 -0.005 0.003 0.002 0.004 -0.003 -0.004 -0.001 -0.003 -0.000 0.001 0.005 0.003 0.003 -0.004 -0.004 -0.002 0.002 -0.004 -0.003 -0.003 0.001 0.002 -0.004 -0.001 0.002 0.002 -0.002 -0.003 0.004 0.005 -0.004 0.005 -0.005 0.002 0.000 -0.003 -0.001 0.004 -0.002 0.002 0.001 0.003 0.001 0.003 -0.003 -0.001 -0.002 -0.002 0.004 0.001 0.000 -0.003 0.003 -0.002 0.004 -0.003 -0.003 -0.004 0.003 -0.003 0.002 0.004 0.001 -0.005 0.002 -0.004 -0.001 0.000 0.003 0.001 -0.003 -0.003 -0.004 -0.003 0.000 -0.000 -0.004 -0.005 -0.005 
technician -0.003 0.004 -0.001 0.000 0.001 -0.004 -0.004 -0.003 -0.002 -0.003 0.003 -0.005 -0.005 -0.004 -0.004 -0.004 -0.000 -0.000 0.004 0.003 -0.001 0.002 0.000 0.003 0.001 0.003 0.005 0.003 0.002 0.002 0.001 -0.001 -0.003 0.001 -0.005 0.001 -0.004 -0.004 0.003 0.001 -0.004 0.001 -0.004 -0.005 0.005 0.001 0.003 0.000 0.003 0.005 0.000 -0.003 0.002 0.004 0.002 -0.001 0.004 0.004 -0.000 0.003 -0.004 0.000 0.002 -0.003 -0.002 -0.005 0.002 0.005 0.003 0.003 -0.001 -0.001 0.003 -0.002 -0.004 0.004 0.001 0.004 -0.002 -0.001 0.002 0.003 0.001 0.003 -0.002 0.003 -0.002 0.001 0.004 -0.004 -0.000 0.002 -0.004 -0.001 -0.001 -0.003 -0.005 -0.001 -0.002 -0.004 
information 0.000 0.003 0.001 -0.003 -0.003 0.006 -0.003 0.005 -0.001 0.003 -0.003 0.003 -0.003 -0.002 0.003 -0.004 -0.001 0.002 -0.000 0.001 0.001 0.003 -0.003 -0.002 0.005 -0.002 -0.003 -0.000 -0.000 -0.004 -0.002 -0.002 -0.001 0.002 0.005 -0.004 0.003 0.001 -0.000 0.004 0.001 0.001 0.003 -0.002 0.000 -0.005 -0.005 0.001 0.003 0.002 0.001 0.005 -0.001 0.003 -0.001 0.004 0.002 -0.001 0.004 -0.004 0.000 -0.004 0.004 -0.002 0.002 -0.001 0.001 0.002 0.002 0.003 0.004 -0.003 0.004 -0.004 0.000 -0.002 0.005 -0.003 -0.002 0.003 -0.002 -0.001 0.002 0.003 0.002 -0.004 0.002 -0.004 -0.000 0.002 0.001 0.002 -0.004 0.003 0.002 -0.003 -0.003 -0.002 0.002 0.001 
external 0.002 0.002 -0.003 -0.003 -0.002 -0.001 -0.003 0.006 -0.000 -0.001 0.004 -0.002 0.000 0.004 -0.005 0.003 -0.003 0.003 -0.002 -0.004 -0.001 -0.006 0.001 0.002 -0.002 0.002 0.002 -0.005 -0.002 0.001 -0.001 0.003 -0.002 -0.000 -0.004 0.004 0.005 -0.005 -0.004 0.002 0.002 0.001 0.006 -0.005 0.003 -0.005 0.001 -0.004 0.004 0.005 0.003 0.004 0.005 -0.000 -0.003 0.000 0.006 -0.002 -0.001 0.000 -0.001 -0.000 -0.004 0.002 0.003 0.003 -0.002 -0.002 0.003 0.001 -0.001 0.001 -0.003 0.001 0.001 0.007 0.006 0.003 0.006 0.002 -0.002 0.006 0.004 0.002 0.003 -0.003 0.005 -0.000 0.002 -0.003 0.002 0.003 0.000 0.003 0.006 0.003 0.005 0.003 0.002 0.002 
employee -0.004 0.002 0.004 0.001 -0.000 0.004 0.006 0.003 -0.001 -0.004 -0.004 -0.004 0.002 -0.002 0.001 -0.002 0.000 0.004 -0.004 -0.001 -0.003 -0.004 0.002 -0.004 -0.004 0.001 -0.003 0.004 0.003 -0.001 0.001 0.003 -0.003 -0.004 0.004 0.003 -0.004 0.003 -0.001 0.004 0.004 0.000 0.001 -0.003 -0.004 -0.001 0.003 0.004 -0.003 0.001 -0.001 0.002 0.002 -0.005 0.001 0.000 0.001 0.001 0.001 0.005 -0.005 0.003 -0.004 -0.002 0.001 -0.001 0.004 -0.003 -0.002 0.005 -0.000 0.001 0.005 0.003 -0.006 0.005 0.005 -0.003 0.003 0.007 -0.003 0.004 0.003 0.002 0.003 -0.002 0.001 -0.003 0.004 -0.006 0.001 0.005 -0.000 0.001 0.000 -0.001 -0.002 -0.002 -0.004 0.002 
asset 0.003 -0.005 0.002 -0.002 -0.000 -0.000 -0.001 -0.001 -0.004 -0.001 0.001 -0.003 -0.003 -0.002 0.003 -0.003 -0.003 -0.005 -0.003 -0.002 0.005 -0.002 0.002 0.001 -0.002 -0.000 0.002 0.001 0.002 0.005 -0.005 0.004 -0.002 0.004 -0.002 0.005 -0.003 0.001 0.000 -0.000 -0.004 -0.000 -0.004 0.000 -0.003 -0.005 0.002 0.002 -0.000 -0.003 0.002 -0.003 -0.003 -0.002 0.000 0.002 0.003 0.000 0.003 0.005 -0.004 0.004 0.001 -0.001 -0.002 -0.000 0.000 -0.002 -0.001 0.003 0.000 -0.001 -0.002 0.003 -0.004 0.003 -0.000 -0.002 0.001 -0.002 -0.003 0.001 0.001 0.002 -0.005 -0.003 -0.001 -0.005 0.004 0.003 -0.003 -0.001 0.002 0.005 -0.002 0.003 -0.004 -0.004 0.003 0.001 
finished 0.001 -0.002 -0.004 -0.002 0.004 0.003 0.000 0.003 -0.001 0.004 0.004 -0.003 -0.002 -0.004 -0.002 -0.002 -0.004 -0.004 0.003 0.001 -0.002 -0.003 0.005 -0.002 0.000 0.005 -0.004 0.002 0.002 0.004 0.004 0.001 -0.001 -0.001 -0.004 -0.002 -0.000 -0.002 0.001 -0.001 0.004 -0.000 -0.000 -0.002 -0.002 -0.004 -0.003 -0.000 0.000 0.001 -0.004 -0.004 0.003 0.003 -0.002 0.003 -0.004 -0.003 -0.001 0.000 0.002 -0.004 0.001 0.002 -0.002 -0.004 0.002 0.002 0.003 0.003 0.001 0.000 0.000 -0.003 -0.004 0.004 -0.002 -0.005 -0.000 -0.003 -0.001 -0.003 -0.001 -0.002 0.004 0.002 -0.004 -0.003 0.004 0.003 -0.005 -0.002 0.003 0.002 -0.002 0.002 -0.004 0.001 0.002 -0.005 
overlaps 0.001 -0.005 0.002 -0.003 -0.004 -0.002 -0.000 0.001 -0.000 0.001 -0.001 0.002 -0.004 -0.005 -0.002 0.001 0.000 0.004 0.001 -0.003 0.001 0.004 0.001 -0.002 0.004 0.001 0.002 -0.004 0.004 -0.001 0.005 0.003 -0.000 0.001 -0.000 0.000 -0.002 -0.002 -0.005 -0.002 0.003 -0.004 0.001 0.003 0.001 0.001 -0.003 -0.001 -0.003 -0.001 0.005 -0.003 0.005 0.000 0.001 0.003 0.005 -0.000 0.004 0.001 0.001 0.004 0.002 -0.001 -0.000 0.001 -0.004 -0.002 -0.001 -0.002 0.001 -0.003 0.003 0.004 0.002 0.003 -0.004 -0.002 -0.001 0.006 0.003 -0.003 0.004 -0.003 0.002 -0.003 0.001 0.004 -0.001 0.004 0.004 -0.002 -0.003 -0.002 -0.002 -0.004 0.004 -0.003 -0.005 0.003 
end 0.000 -0.000 0.002 0.004 0.004 0.002 -0.002 0.004 -0.000 -0.001 0.002 0.003 -0.002 -0.001 -0.005 0.002 0.002 0.005 -0.003 -0.002 -0.000 -0.000 -0.002 -0.004 0.005 0.000 0.007 -0.005 0.005 0.006 0.005 0.004 0.003 -0.002 0.002 -0.002 -0.004 0.004 0.003 -0.003 -0.001 -0.004 -0.002 0.002 -0.002 0.004 -0.001 0.002 0.003 0.003 0.003 -0.002 -0.000 -0.008 -0.001 -0.002 -0.002 0.005 0.001 0.003 -0.002 0.002 0.004 0.001 -0.000 0.003 -0.002 -0.001 -0.000 0.001 0.005 -0.002 -0.002 -0.003 -0.005 0.007 -0.003 -0.005 0.000 0.006 0.004 0.005 -0.004 0.002 -0.001 -0.003 0.004 0.005 0.003 0.001 -0.004 0.007 0.003 0.002 0.005 0.000 -0.003 -0.001 -0.003 0.003 
friend 0.002 -0.003 0.003 -0.003 0.004 0.002 0.005 -0.004 0.003 -0.005 -0.000 0.000 -0.001 0.000 -0.002 0.004 0.002 -0.005 -0.000 -0.000 0.004 -0.003 0.002 -0.003 -0.002 -0.003 0.005 0.001 0.001 0.001 0.002 0.003 -0.003 0.001 0.005 0.004 -0.004 -0.000 -0.000 -0.000 0.001 -0.003 -0.000 0.003 -0.002 0.002 0.005 0.005 -0.004 -0.002 -0.000 0.001 0.004 0.004 -0.005 0.003 0.005 0.002 -0.001 0.004 0.004 -0.005 -0.002 0.005 0.001 0.004 0.002 0.003 0.002 0.003 0.005 -0.001 -0.002 0.004 -0.001 -0.001 0.004 -0.002 -0.003 0.002 -0.004 -0.002 0.001 -0.002 -0.005 0.003 0.001 0.002 -0.005 -0.001 0.002 0.001 0.004 -0.003 -0.003 0.001 -0.005 0.002 -0.002 -0.004 
destination -0.005 0.002 -0.003 0.002 -0.001 0.002 -0.003 0.001 0.003 0.002 0.005 -0.005 -0.004 0.003 0.003 0.004 0.001 0.002 -0.002 -0.001 0.001 -0.004 -0.000 0.005 -0.001 0.003 -0.004 -0.004 -0.004 0.005 0.003 0.001 0.003 -0.004 -0.004 0.004 -0.004 -0.002 -0.001 -0.003 0.004 0.003 -0.005 0.003 0.000 0.002 0.004 -0.000 0.004 -0.004 -0.001 0.004 -0.005 0.004 -0.001 0.001 0.004 0.002 -0.002 -0.002 0.001 0.005 0.003 0.003 0.004 0.003 -0.003 -0.002 0.003 0.001 0.003 0.003 -0.003 -0.001 0.002 0.002 0.004 0.004 -0.001 -0.002 0.002 0.002 0.004 -0.001 0.002 0.002 -0.004 -0.002 -0.003 0.005 0.001 -0.003 0.003 -0.002 -0.003 0.001 0.002 -0.000 -0.001 -0.003 
contractor 0.003 0.000 -0.002 0.004 0.001 -0.003 0.004 -0.002 0.001 -0.002 -0.003 0.002 0.003 -0.005 0.004 0.005 0.003 -0.003 -0.003 0.004 0.003 -0.003 -0.004 0.004 -0.001 -0.003 0.005 0.002 -0.001 -0.002 -0.005 0.003 -0.002 -0.001 -0.003 -0.003 0.003 -0.005 -0.003 0.003 0.004 -0.004 0.005 0.000 0.001 -0.004 -0.002 0.005 0.001 0.005 0.002 0.002 0.005 0.002 0.002 -0.004 0.002 0.003 0.003 -0.003 0.003 -0.005 -0.002 -0.004 -0.000 -0.004 -0.005 0.002 0.004 0.005 -0.002 0.002 0.002 0.002 0.004 0.001 0.002 0.002 0.003 0.004 -0.003 0.002 -0.002 0.003 0.002 0.003 -0.005 0.005 0.004 -0.002 -0.003 -0.003 -0.004 -0.001 -0.001 -0.004 0.003 0.003 0.002 0.002 
access 0.003 -0.004 0.000 -0.000 0.001 -0.004 -0.003 0.004 -0.004 -0.002 -0.002 0.004 -0.001 0.004 -0.002 0.004 0.000 0.001 -0.001 0.003 -0.000 0.002 0.004 0.001 -0.003 0.004 -0.002 -0.001 0.002 0.003 0.001 0.004 0.005 0.004 -0.002 0.004 -0.001 -0.002 -0.004 -0.005 -0.000 0.001 -0.002 0.003 -0.000 0.002 0.001 -0.001 0.001 0.001 0.004 0.004 0.005 -0.001 -0.001 0.004 0.005 0.006 0.004 0.000 -0.000 -0.002 0.002 0.003 0.003 -0.003 0.001 -0.003 0.003 0.003 0.004 -0.001 -0.003 0.004 -0.000 0.004 0.003 0.002 0.003 -0.002 -0.000 -0.001 0.004 -0.002 -0.001 0.002 0.004 0.005 -0.001 -0.001 -0.006 0.001 -0.005 -0.000 -0.000 -0.000 0.005 0.004 0.002 -0.004 
sales 0.004 -0.003 0.001 -0.002 -0.001 -0.003 0.002 0.002 -0.001 0.002 0.005 0.002 -0.004 0.001 0.003 -0.004 0.003 -0.001 0.005 -0.000 0.003 -0.002 -0.003 -0.000 -0.003 0.003 -0.004 -0.003 0.001 -0.005 -0.000 0.000 0.004 0.002 0.004 0.001 0.001 0.003 -0.001 0.002 -0.002 0.002 0.001 0.003 0.003 0.000 -0.000 0.004 -0.005 0.002 -0.004 -0.003 0.005 -0.001 -0.001 -0.004 -0.003 -0.002 0.005 -0.000 -0.005 -0.003 0.002 -0.000 0.003 0.001 0.001 0.004 -0.001 -0.004 -0.003 0.003 0.002 0.002 0.003 -0.001 0.002 -0.004 0.001 0.003 -0.002 -0.003 -0.002 -0.004 0.004 -0.001 -0.002 0.004 -0.005 -0.001 0.001 -0.001 -0.002 0.004 0.003 0.003 0.004 -0.003 -0.005 0.000 
husband 0.003 -0.003 -0.003 0.000 0.003 0.001 0.004 -0.003 -0.004 -0.001 -0.000 -0.001 -0.001 -0.001 -0.003 0.000 0.005 0.000 0.004 0.001 -0.001 -0.003 0.001 0.002 0.003 -0.003 0.002 0.000 -0.004 0.001 0.002 0.001 -0.002 0.001 0.001 -0.002 0.003 0.001 -0.004 0.004 0.001 -0.004 -0.002 -0.005 0.001 0.005 0.000 -0.005 0.000 0.002 0.004 0.002 0.004 0.003 -0.000 -0.004 0.001 -0.002 -0.002 -0.000 -0.001 0.001 -0.005 -0.003 0.001 -0.001 -0.005 0.004 -0.002 -0.003 0.004 -0.002 -0.003 0.000 0.000 0.002 -0.002 -0.001 0.001 -0.002 0.001 0.002 -0.002 0.001 -0.003 -0.003 -0.001 0.004 -0.003 0.001 -0.004 -0.000 -0.001 -0.002 0.001 0.003 -0.003 -0.002 0.000 0.005 
father -0.004 -0.004 0.002 0.004 0.005 -0.001 0.002 0.005 0.004 -0.005 -0.002 -0.004 0.003 -0.005 0.003 -0.003 -0.000 -0.001 -0.004 -0.004 -0.000 -0.004 -0.004 -0.005 0.002 0.000 0.007 0.003 0.003 0.000 0.002 -0.002 0.002 0.002 -0.001 -0.000 -0.000 -0.000 -0.004 0.004 0.001 -0.001 0.004 0.003 0.003 0.001 0.004 0.003 0.004 -0.001 -0.003 -0.002 0.002 -0.004 -0.003 0.002 0.002 0.007 0.001 0.003 -0.003 0.002 0.003 0.005 -0.004 0.003 -0.004 0.006 -0.005 -0.003 0.004 -0.002 0.001 -0.003 -0.005 0.005 0.002 -0.001 -0.001 0.007 -0.001 0.003 -0.001 -0.001 -0.005 -0.001 0.007 0.003 0.004 -0.002 -0.001 0.007 -0.003 0.005 0.001 0.004 0.001 -0.002 -0.005 -0.002 
executive -0.001 0.004 0.003 0.003 0.001 0.003 0.000 0.002 0.004 -0.004 0.001 -0.003 0.004 -0.001 0.000 0.005 0.001 0.004 -0.001 0.000 -0.004 0.001 0.003 0.003 0.002 0.002 -0.000 -0.003 0.004 -0.001 0.004 -0.000 -0.001 0.002 -0.000 -0.004 0.004 0.000 -0.001 0.004 -0.004 -0.002 -0.004 -0.002 0.001 -0.003 0.001 0.000 0.001 0.002 0.002 0.003 0.005 -0.000 -0.003 -0.001 0.003 -0.002 0.001 0.005 0.001 0.000 -0.000 0.003 -0.005 -0.002 0.001 0.001 0.004 0.003 -0.001 0.002 -0.002 -0.005 0.002 0.005 0.004 -0.006 0.002 0.001 0.004 -0.004 0.002 -0.002 -0.003 -0.001 -0.002 -0.002 0.000 0.004 -0.003 0.001 0.000 -0.001 0.005 -0.004 0.001 0.003 -0.000 -0.004 
partner 0.000 0.002 0.002 0.003 0.002 0.004 0.005 0.002 0.002 0.000 -0.003 0.002 -0.003 -0.003 -0.002 0.003 0.006 -0.003 -0.001 -0.005 0.006 -0.003 -0.001 -0.001 -0.003 0.005 -0.002 0.002 0.001 0.000 -0.002 0.003 0.006 0.006 0.004 -0.003 -0.003 -0.001 0.003 0.005 -0.005 0.002 0.006 0.002 0.000 -0.004 0.005 -0.002 0.005 0.002 0.003 0.004 0.004 -0.002 0.004 0.002 0.001 0.003 -0.000 0.005 0.004 0.000 -0.002 -0.002 -0.006 -0.002 -0.004 -0.002 0.001 0.004 0.004 -0.005 0.002 0.002 0.001 0.005 0.001 -0.005 0.006 0.003 -0.003 -0.001 0.006 0.003 -0.000 0.004 0.003 0.003 0.005 -0.004 -0.006 0.004 0.003 -0.004 0.004 0.000 0.005 -0.004 -0.002 -0.003 
victim 0.001 0.002 -0.001 -0.004 0.001 -0.000 -0.004 -0.001 0.005 0.004 -0.003 -0.005 -0.001 -0.004 0.002 -0.004 -0.001 -0.002 -0.004 -0.005 0.001 -0.000 0.001 0.003 -0.001 -0.001 0.001 -0.002 0.004 0.000 -0.002 0.002 0.001 0.002 0.003 0.001 -0.003 -0.005 -0.002 -0.004 0.004 0.001 -0.005 -0.004 0.003 0.001 -0.002 0.004 0.001 0.001 0.000 0.003 0.001 0.005 0.002 -0.004 0.000 -0.004 0.000 0.001 -0.004 -0.002 0.002 0.002 0.003 -0.001 -0.005 -0.002 -0.003 -0.003 0.001 -0.001 -0.002 0.001 -0.002 0.001 0.005 -0.003 0.003 -0.005 -0.002 -0.003 -0.004 -0.001 -0.001 0.003 0.001 0.002 0.002 0.002 -0.004 0.001 -0.004 0.000 -0.004 0.000 -0.002 0.000 -0.001 0.003 
organization -0.001 0.001 -0.000 -0.004 -0.002 0.005 -0.001 0.000 0.003 -0.002 -0.005 -0.005 -0.002 -0.003 -0.005 -0.000 -0.002 0.001 -0.003 -0.006 -0.002 0.000 -0.002 -0.003 0.005 0.005 0.005 0.003 -0.000 -0.003 -0.004 0.004 0.005 0.003 -0.000 -0.003 0.005 0.001 0.004 -0.002 0.002 0.005 0.000 0.005 -0.003 -0.004 -0.001 -0.003 0.002 0.001 0.001 0.001 -0.003 -0.000 -0.004 -0.004 -0.001 -0.001 0.004 0.003 0.001 0.005 -0.000 0.003 0.001 -0.002 0.002 0.006 -0.002 -0.002 0.006 0.003 -0.002 0.001 -0.001 0.004 0.003 -0.005 0.005 0.005 0.005 0.000 0.003 0.000 0.002 -0.000 0.003 0.001 0.005 -0.003 -0.006 0.000 -0.001 -0.003 0.001 -0.003 0.005 -0.002 -0.001 -0.003 
network -0.002 -0.001 0.001 -0.003 -0.003 -0.002 0.004 0.002 0.004 -0.005 -0.002 -0.005 -0.000 0.003 0.001 -0.001 -0.001 -0.001 -0.000 -0.002 0.002 -0.005 0.001 0.000 -0.001 0.004 -0.001 -0.002 -0.003 -0.000 0.002 0.001 -0.004 0.003 0.003 0.000 -0.001 0.001 0.000 -0.001 -0.000 -0.004 0.005 0.001 0.003 0.004 -0.004 -0.003 -0.001 0.002 -0.003 -0.002 0.003 -0.003 0.004 -0.000 0.003 -0.004 -0.003 0.001 -0.004 -0.003 0.001 0.000 0.001 0.000 -0.001 0.003 -0.004 -0.002 0.001 -0.003 0.002 -0.003 -0.000 -0.000 0.003 -0.002 -0.002 0.006 -0.003 0.003 -0.002 -0.004 -0.001 -0.003 -0.001 0.003 -0.001 0.003 -0.002 -0.002 -0.002 -0.001 0.003 0.004 0.001 0.004 -0.005 -0.003 
start -0.005 -0.005 0.005 -0.002 -0.002 0.003 -0.003 0.005 0.002 0.000 0.003 -0.001 -0.003 -0.004 -0.003 0.003 0.004 -0.004 0.000 0.003 -0.002 0.001 -0.000 0.001 0.003 -0.001 -0.001 0.001 0.006 0.004 -0.000 0.004 0.001 0.003 -0.002 -0.004 -0.002 -0.001 0.004 -0.003 0.004 0.004 -0.001 -0.003 0.002 0.003 -0.004 -0.002 0.005 0.007 -0.006 0.002 0.001 -0.005 0.003 0.001 -0.001 0.006 -0.003 -0.002 0.003 -0.002 0.002 -0.001 -0.002 0.001 -0.002 0.002 0.004 0.004 0.001 0.001 0.005 -0.006 0.001 0.006 -0.003 0.002 -0.000 0.005 0.000 0.005 -0.004 0.001 -0.003 0.004 0.005 0.004 0.004 0.000 -0.004 0.006 0.005 -0.001 0.003 0.001 0.002 0.003 0.002 0.000 
meets -0.005 0.005 -0.001 0.001 0.001 0.001 -0.003 0.004 -0.001 0.003 0.002 0.001 -0.004 0.003 -0.003 -0.002 0.003 -0.005 -0.003 0.005 0.005 -0.005 -0.004 0.000 -0.001 0.002 -0.003 0.004 -0.005 -0.004 -0.002 0.002 -0.004 0.002 0.002 -0.000 -0.005 0.004 0.001 -0.000 -0.003 0.001 0.004 0.003 -0.001 -0.001 0.000 0.004 0.003 -0.004 0.001 0.001 -0.004 0.002 0.002 -0.000 0.000 -0.001 -0.003 -0.003 0.001 -0.003 -0.001 -0.000 -0.003 0.003 0.005 0.005 0.002 0.005 0.001 -0.001 0.001 0.001 0.003 0.002 0.003 -0.004 0.002 0.001 -0.003 0.005 -0.003 -0.001 0.004 -0.004 0.001 0.005 0.005 0.003 0.001 -0.002 -0.001 -0.003 -0.001 -0.004 -0.003 0.003 0.002 -0.002 
ending -0.000 -0.000 0.003 -0.000 -0.001 0.002 -0.001 0.005 -0.003 -0.000 -0.003 0.003 0.002 -0.005 -0.003 0.002 -0.000 -0.003 -0.005 -0.005 0.001 0.002 -0.003 -0.002 0.004 0.004 0.000 -0.004 -0.001 0.001 0.005 0.000 -0.001 0.003 -0.003 -0.005 0.001 0.003 -0.003 -0.003 -0.003 -0.005 0.001 0.004 -0.001 -0.002 0.004 0.001 0.005 0.003 -0.003 -0.002 0.003 -0.004 -0.003 0.003 0.002 0.005 0.000 0.004 0.004 0.001 -0.002 -0.002 0.000 0.004 0.001 0.006 0.004 0.003 0.004 0.001 0.003 -0.006 -0.000 0.003 0.004 -0.000 0.006 0.001 0.005 0.001 0.004 -0.000 -0.000 -0.001 0.001 0.004 0.001 -0.004 -0.007 0.007 0.004 0.004 -0.001 0.002 0.002 -0.000 -0.003 -0.003 
wife -0.003 0.003 -0.002 -0.004 0.003 0.003 0.004 -0.004 0.005 0.000 -0.001 0.002 -0.004 0.003 0.003 0.004 -0.004 -0.003 -0.001 -0.003 0.004 -0.000 -0.002 -0.003 0.004 -0.004 0.002 -0.002 -0.004 -0.002 -0.001 0.002 -0.005 -0.001 -0.002 0.003 0.002 0.003 0.003 0.002 -0.003 -0.001 -0.003 0.001 0.002 0.001 -0.004 0.004 0.003 -0.001 0.002 0.003 -0.004 -0.002 -0.003 -0.004 0.001 -0.003 0.004 0.001 0.002 -0.002 -0.001 0.001 -0.004 -0.003 -0.001 0.005 -0.003 -0.002 -0.000 -0.002 0.003 0.005 0.001 -0.001 -0.003 -0.004 0.000 -0.005 0.001 0.002 -0.002 -0.003 0.003 -0.001 -0.004 0.004 -0.001 -0.000 0.001 -0.004 0.002 0.003 -0.001 0.003 -0.005 -0.001 0.004 -0.001 
security 0.000 0.004 0.005 0.003 -0.001 -0.001 -0.002 0.001 0.001 -0.003 0.005 0.001 -0.000 0.003 -0.000 0.001 0.001 0.002 0.004 -0.005 -0.001 0.002 0.003 -0.001 0.000 -0.004 -0.003 0.002 0.004 -0.004 0.004 0.003 -0.004 0.004 -0.001 -0.002 -0.003 -0.000 -0.000 0.005 0.000 0.004 0.004 0.001 -0.001 0.002 0.005 0.000 -0.003 -0.002 -0.001 0.002 0.000 -0.005 -0.003 0.004 -0.001 -0.000 -0.001 -0.003 0.003 -0.004 0.001 -0.004 -0.002 0.004 0.003 0.001 0.002 -0.002 0.004 0.004 0.004 0.002 0.004 0.006 -0.000 -0.001 -0.003 0.000 0.002 0.003 -0.002 0.004 -0.002 -0.003 0.002 0.003 -0.003 0.004 0.002 0.005 -0.004 -0.003 -0.001 0.004 0.001 -0.000 -0.003 -0.001 
family 0.004 0.003 0.000 0.001 -0.003 0.004 0.006 0.003 -0.002 -0.000 0.005 -0.000 -0.002 0.001 -0.003 -0.004 0.001 -0.004 -0.001 -0.006 -0.001 0.003 0.001 -0.005 0.001 -0.000 0.005 -0.005 0.006 0.005 -0.003 0.000 0.006 0.003 0.003 -0.001 -0.004 -0.002 0.004 0.005 0.002 0.005 -0.003 -0.001 -0.005 -0.001 -0.002 -0.001 -0.003 0.007 0.002 0.003 -0.002 -0.004 0.004 -0.003 0.006 0.008 0.000 0.005 -0.000 -0.002 -0.003 0.000 -0.002 -0.001 0.005 -0.002 0.004 -0.003 0.007 -0.003 0.004 -0.005 -0.001 0.006 0.002 0.002 0.007 0.007 0.003 0.006 0.004 0.003 0.000 0.003 0.002 -0.003 -0.004 0.000 0.002 0.006 0.004 -0.004 0.005 -0.002 0.006 0.001 0.002 0.002 
relation -0.004 -0.003 0.003 -0.000 0.002 0.006 0.005 0.000 -0.004 -0.008 0.006 -0.008 -0.007 -0.003 -0.008 0.002 0.008 0.005 -0.009 -0.003 0.004 0.002 -0.003 -0.003 -0.003 0.000 0.008 -0.003 -0.002 0.008 0.004 -0.001 0.007 0.007 0.004 0.001 0.005 0.005 -0.007 0.003 0.000 -0.001 0.004 0.004 0.001 -0.002 0.005 -0.001 0.006 0.005 -0.004 -0.002 0.009 -0.010 -0.001 0.001 -0.000 0.011 0.007 0.002 0.000 -0.002 0.004 0.001 0.002 0.003 0.002 0.001 0.004 -0.003 0.003 0.002 0.003 -0.006 -0.001 0.009 0.001 -0.005 0.012 0.009 -0.001 0.002 0.004 -0.002 -0.002 0.001 0.001 0.005 -0.002 -0.006 -0.003 0.006 -0.003 -0.001 0.001 0.004 0.007 0.003 -0.004 0.002 
vendor -0.000 0.001 -0.000 0.001 -0.003 -0.000 -0.000 -0.003 0.001 -0.004 0.002 0.005 -0.001 -0.004 -0.002 0.004 -0.000 -0.005 -0.005 0.001 0.000 -0.004 0.004 -0.002 0.000 0.003 0.002 -0.000 -0.003 -0.001 -0.002 0.003 0.003 -0.001 0.003 0.005 -0.004 -0.004 0.001 0.004 0.002 0.003 0.005 -0.003 0.003 -0.004 -0.002 -0.002 -0.002 0.003 0.002 -0.002 0.000 0.001 0.002 -0.004 -0.003 0.002 0.002 0.000 0.003 -0.002 0.001 -0.001 0.003 0.001 -0.005 -0.003 -0.001 0.001 0.002 -0.001 -0.005 0.005 0.002 0.004 0.001 0.004 0.004 -0.003 0.000 -0.002 0.005 0.003 0.004 -0.002 -0.000 0.004 -0.002 -0.004 -0.002 -0.002 0.003 0.000 -0.004 0.000 0.003 0.003 -0.005 0.001 
reference -0.000 -0.002 0.005 -0.004 -0.001 -0.003 -0.004 0.005 -0.001 0.001 -0.003 -0.004 -0.001 0.004 -0.004 0.003 -0.002 0.001 0.002 0.004 0.002 -0.004 -0.000 0.004 -0.000 0.004 -0.001 -0.005 -0.002 -0.000 0.004 -0.002 -0.004 -0.002 0.003 0.004 0.004 0.001 0.004 -0.002 0.004 0.003 0.003 0.005 -0.004 0.001 0.002 -0.002 -0.004 0.001 0.004 0.001 -0.002 -0.001 -0.002 0.003 0.004 0.002 0.001 -0.002 0.000 0.005 -0.005 0.002 0.002 0.002 0.001 0.006 0.001 -0.001 -0.003 -0.000 0.003 -0.004 -0.000 0.002 0.003 -0.006 0.003 0.005 0.003 -0.003 -0.002 -0.005 -0.003 0.002 0.004 0.002 0.004 -0.005 -0.005 0.002 0.001 0.001 0.003 0.005 0.002 -0.005 -0.003 -0.000 
uppermanagement -0.000 -0.001 0.003 -0.001 0.001 0.000 -0.003 0.004 -0.005 0.002 0.003 -0.001 -0.003 0.002 0.001 -0.003 -0.000 -0.003 0.001 0.003 0.004 -0.002 -0.004 0.005 0.003 -0.001 -0.004 0.002 0.004 0.001 -0.002 -0.004 -0.003 0.001 0.005 -0.002 0.002 0.004 -0.005 -0.001 -0.001 0.003 -0.002 -0.003 0.003 0.002 0.003 -0.001 0.005 -0.000 0.001 -0.002 0.000 -0.001 0.003 -0.001 0.002 0.002 -0.001 -0.002 -0.001 -0.003 0.002 -0.004 -0.003 -0.001 0.002 -0.002 0.002 0.002 -0.004 0.001 -0.004 -0.002 0.002 0.001 -0.005 0.000 0.001 -0.002 0.002 0.003 0.001 -0.001 -0.004 -0.002 -0.004 0.004 0.000 -0.003 -0.001 0.004 0.001 -0.000 -0.003 -0.005 0.001 0.003 0.003 -0.002 
administrative -0.000 0.005 0.001 0.004 0.003 -0.003 0.004 0.006 -0.000 0.003 -0.003 0.002 0.000 -0.003 -0.005 -0.000 -0.004 0.005 -0.000 0.002 -0.004 -0.005 0.002 0.003 -0.001 0.004 0.005 -0.003 -0.001 0.006 0.003 -0.001 0.003 -0.004 -0.003 0.004 0.003 -0.005 -0.003 -0.004 0.004 -0.000 0.004 -0.004 -0.001 0.001 -0.003 0.002 0.006 0.004 0.002 0.005 0.004 -0.004 -0.003 -0.005 -0.003 -0.003 0.005 0.003 -0.004 -0.000 0.001 -0.003 -0.004 -0.002 0.004 0.004 0.002 0.002 -0.002 0.003 0.004 -0.002 0.001 -0.001 -0.004 -0.004 -0.002 0.001 -0.000 0.005 0.001 -0.001 -0.003 -0.002 0.002 0.005 0.001 -0.003 0.002 0.004 -0.003 -0.000 -0.000 0.004 0.002 0.001 0.000 0.000 
assistant -0.000 -0.003 -0.002 0.004 0.002 0.002 -0.001 -0.002 0.001 0.003 -0.004 -0.000 -0.001 0.002 0.004 0.004 -0.002 0.004 0.004 -0.005 0.002 0.003 0.001 0.000 0.004 -0.000 -0.003 0.001 -0.004 -0.004 0.003 0.004 -0.005 -0.005 0.000 -0.002 -0.001 0.004 0.002 -0.005 -0.005 -0.003 0.001 0.003 -0.005 -0.002 0.001 -0.003 -0.004 0.005 0.004 0.004 0.005 0.000 0.003 -0.001 -0.001 -0.000 0.002 -0.004 0.004 0.004 0.002 -0.003 0.001 0.001 0.004 0.001 0.003 -0.002 0.000 -0.001 0.001 -0.001 -0.002 0.001 -0.002 0.004 -0.004 0.001 0.004 -0.004 0.001 0.003 0.005 0.002 -0.000 0.002 0.001 -0.004 0.004 -0.002 -0.005 -0.004 -0.000 -0.004 0.003 0.004 0.002 -0.004 
istemporally -0.004 -0.000 0.004 -0.001 -0.001 -0.002 -0.003 0.000 0.003 0.000 0.001 -0.001 -0.001 -0.001 0.003 -0.002 0.004 -0.005 0.001 -0.003 -0.001 0.004 -0.001 -0.005 -0.005 -0.005 -0.003 -0.002 -0.001 0.003 -0.004 0.005 -0.002 0.001 -0.001 -0.003 0.004 0.004 0.000 0.003 0.004 0.004 -0.003 -0.004 0.005 -0.001 0.003 0.000 -0.003 0.004 0.002 -0.003 -0.004 0.003 0.001 0.003 -0.001 0.002 -0.005 -0.003 0.004 -0.001 0.004 0.002 -0.005 -0.001 0.000 0.000 -0.004 -0.004 0.003 0.003 -0.004 0.001 -0.005 -0.002 0.004 0.000 0.005 0.002 0.003 -0.002 -0.003 0.004 0.002 0.001 0.004 -0.002 0.003 -0.004 -0.004 0.005 0.004 -0.002 -0.001 0.005 0.002 0.002 0.003 0.003 
subsumed 0.003 0.002 0.003 -0.004 -0.004 -0.002 -0.001 0.003 -0.001 -0.001 0.004 -0.005 0.001 0.002 0.003 0.004 -0.004 0.001 -0.003 -0.001 -0.005 0.004 -0.002 0.003 -0.003 0.002 0.001 0.004 0.003 0.001 0.001 0.003 -0.002 -0.001 -0.004 -0.000 0.003 -0.000 -0.003 0.002 0.001 -0.002 0.000 -0.001 0.001 0.005 0.004 0.000 0.002 0.003 0.004 -0.001 -0.002 -0.004 -0.002 -0.001 -0.002 0.003 0.005 -0.001 0.005 0.005 0.004 0.004 0.002 0.001 0.003 -0.001 0.003 -0.003 -0.001 0.005 0.003 -0.003 -0.001 0.001 0.005 0.002 0.000 0.001 -0.005 0.005 -0.001 0.002 -0.005 0.005 -0.004 0.003 0.001 0.004 -0.000 -0.001 -0.000 -0.004 0.002 0.002 0.000 0.003 -0.000 -0.004 
representative 0.004 0.003 0.002 0.001 -0.004 -0.004 0.002 -0.003 0.000 -0.001 -0.003 0.002 0.003 0.000 -0.005 0.002 -0.005 0.004 0.002 -0.002 0.002 -0.002 0.004 0.000 -0.003 -0.003 0.005 0.004 -0.002 -0.005 -0.005 0.005 -0.005 -0.002 -0.001 -0.004 0.001 0.000 -0.005 -0.002 -0.002 -0.002 0.005 0.003 -0.002 0.002 0.003 0.001 0.001 0.000 0.005 0.000 -0.003 -0.001 0.005 0.001 -0.002 -0.004 -0.001 0.004 -0.002 0.003 -0.001 -0.004 -0.002 0.004 -0.001 0.002 0.002 -0.004 -0.002 0.002 0.002 -0.002 0.002 -0.001 -0.002 0.004 -0.004 0.004 -0.000 -0.002 0.001 -0.002 -0.001 0.001 -0.002 0.003 0.004 0.002 0.000 0.003 0.002 -0.004 -0.001 -0.004 0.004 0.002 0.004 0.003 
retailer -0.005 -0.002 -0.005 -0.003 0.005 0.001 -0.005 -0.002 0.001 0.001 0.002 0.003 0.001 0.002 -0.001 0.000 -0.002 0.003 -0.003 -0.000 -0.003 0.004 -0.004 0.002 0.003 0.000 0.004 -0.005 -0.002 0.002 -0.003 0.001 -0.002 0.002 0.004 0.004 0.001 0.003 -0.004 0.001 0.000 0.003 0.001 -0.002 0.001 0.003 0.003 -0.004 0.005 -0.004 -0.001 -0.003 0.005 -0.002 -0.002 -0.005 0.003 -0.004 0.001 0.002 0.000 0.001 -0.005 0.003 -0.004 -0.002 0.001 0.005 -0.000 0.003 0.001 0.004 0.005 0.003 -0.004 -0.000 0.002 0.001 -0.002 -0.001 -0.005 -0.001 0.002 -0.005 0.003 -0.003 0.000 -0.003 -0.003 -0.002 0.005 -0.004 -0.004 0.001 0.003 -0.001 -0.001 -0.003 0.001 0.001 
police 0.000 -0.004 0.000 0.005 0.001 -0.003 -0.001 -0.004 0.003 0.003 0.004 -0.003 -0.000 -0.001 -0.004 -0.003 0.002 -0.001 -0.003 -0.003 0.001 -0.003 -0.001 0.003 0.001 -0.003 -0.004 0.003 -0.001 -0.004 -0.001 -0.004 -0.002 0.004 0.001 -0.000 -0.001 -0.004 -0.000 -0.002 0.003 -0.003 0.004 -0.001 0.001 0.000 -0.002 -0.002 0.002 0.002 -0.004 0.002 0.001 0.000 0.005 -0.001 -0.000 -0.000 -0.004 0.001 -0.002 -0.001 0.005 0.004 -0.003 0.003 0.005 0.005 0.003 0.003 -0.004 0.005 -0.002 -0.000 -0.003 -0.003 0.002 -0.003 -0.004 -0.005 0.003 -0.005 -0.002 0.005 -0.003 -0.002 0.001 0.001 -0.002 0.003 0.000 0.004 -0.000 -0.003 0.002 0.004 -0.001 -0.004 -0.000 -0.003 
brother -0.002 0.004 0.002 -0.002 -0.003 0.000 0.001 0.004 0.001 -0.001 0.004 -0.001 0.001 -0.004 -0.003 -0.002 0.001 -0.003 0.001 0.003 -0.002 0.000 -0.004 -0.001 -0.003 -0.000 0.001 -0.004 -0.003 -0.002 -0.001 -0.004 -0.001 0.000 0.001 0.003 -0.004 0.002 -0.003 0.004 -0.003 -0.001 -0.000 -0.002 -0.002 0.002 0.003 0.004 -0.002 0.002 -0.000 -0.000 -0.001 -0.005 0.001 0.001 -0.001 -0.004 0.003 0.001 -0.000 0.003 -0.003 -0.002 0.001 -0.003 0.002 -0.002 0.003 0.005 -0.004 0.004 0.002 0.001 0.003 -0.001 0.003 0.002 -0.003 -0.003 0.004 0.000 0.004 0.003 -0.004 -0.002 -0.003 0.002 -0.001 0.002 0.001 -0.001 0.002 -0.002 -0.001 -0.001 -0.004 0.003 -0.004 0.001 
researcher 0.001 0.002 -0.003 0.005 0.002 -0.005 -0.001 0.001 0.003 -0.003 -0.001 0.005 -0.001 0.005 -0.001 -0.003 -0.001 -0.002 -0.004 0.003 -0.004 -0.004 0.001 -0.003 -0.001 0.002 -0.003 -0.004 0.005 -0.002 -0.003 -0.000 -0.003 0.002 0.005 0.002 -0.003 -0.001 -0.004 -0.002 0.000 0.002 -0.005 -0.002 0.002 -0.002 -0.003 -0.004 -0.002 0.001 -0.002 -0.003 0.003 -0.002 -0.003 -0.004 -0.001 -0.003 0.002 -0.003 -0.004 -0.004 0.005 0.002 0.002 0.004 0.001 -0.002 0.002 -0.000 0.004 0.002 -0.000 -0.003 0.001 -0.004 -0.001 -0.002 -0.001 -0.002 0.005 0.000 0.001 0.002 0.005 -0.003 -0.004 -0.004 -0.004 0.005 -0.001 -0.001 -0.003 -0.005 0.004 0.004 0.004 -0.004 -0.002 0.001 
subject -0.004 0.001 -0.001 -0.004 0.002 0.005 -0.002 -0.000 0.004 -0.004 0.002 -0.005 -0.002 -0.004 -0.004 -0.003 0.005 -0.004 -0.006 0.003 0.004 -0.003 0.002 0.004 -0.002 0.002 -0.002 -0.003 -0.003 -0.001 -0.003 0.002 0.005 -0.004 0.004 0.004 -0.002 0.003 0.001 0.000 0.001 0.002 0.004 -0.001 -0.001 0.004 0.001 0.006 0.005 0.001 -0.002 -0.000 -0.001 -0.001 0.003 -0.001 -0.001 0.003 -0.001 0.001 -0.001 0.003 0.001 -0.003 -0.003 -0.002 0.001 -0.000 0.002 -0.000 0.003 0.004 0.002 -0.004 0.001 0.003 0.005 0.000 0.007 0.005 0.001 0.001 -0.003 -0.000 -0.002 0.004 0.003 0.004 0.002 0.001 0.001 0.003 -0.003 0.003 0.006 0.000 0.005 -0.003 -0.005 -0.004 
girlfriend -0.002 -0.002 0.000 0.005 -0.001 0.005 0.003 -0.004 -0.002 -0.001 0.000 0.000 0.004 0.000 -0.000 -0.002 -0.001 -0.002 0.002 0.002 -0.004 -0.003 0.003 0.005 -0.004 -0.002 -0.004 -0.004 0.004 0.003 -0.000 0.003 -0.004 0.005 -0.000 0.003 -0.003 -0.004 -0.001 0.005 0.004 -0.004 0.004 -0.004 -0.001 0.004 -0.005 -0.003 -0.005 0.001 0.003 0.002 0.003 0.002 -0.001 -0.004 0.002 0.002 -0.005 -0.001 -0.005 0.004 -0.000 -0.002 -0.000 -0.003 0.002 -0.002 0.000 0.003 -0.004 0.002 -0.004 0.003 -0.000 -0.001 0.002 0.004 -0.002 0.002 0.003 -0.000 0.000 -0.003 -0.001 -0.003 -0.002 0.003 -0.004 0.001 -0.001 0.003 -0.003 0.001 0.004 0.001 0.002 0.004 -0.002 0.004 
consultant 0.004 0.002 0.005 0.002 -0.001 -0.004 -0.003 0.000 0.002 -0.001 0.004 -0.004 0.002 0.003 -0.002 -0.001 0.001 0.001 0.002 -0.002 -0.000 0.002 -0.004 0.003 0.001 -0.001 0.000 0.004 -0.004 0.002 0.000 -0.003 -0.002 -0.003 0.002 0.003 0.003 -0.004 0.003 0.003 -0.003 -0.000 0.003 0.001 0.003 -0.003 -0.005 -0.001 -0.000 -0.002 -0.000 -0.000 0.002 -0.003 -0.003 -0.001 0.004 -0.002 -0.005 0.004 0.002 -0.003 -0.000 0.001 0.004 -0.004 0.001 -0.002 0.002 0.002 0.004 0.001 -0.002 0.000 0.000 0.001 -0.001 0.004 0.001 -0.002 0.002 0.002 -0.004 -0.001 0.002 0.004 -0.004 0.004 -0.002 -0.002 0.002 -0.002 -0.002 -0.000 -0.004 -0.002 0.004 0.005 0.002 0.000 
office -0.000 0.005 0.001 0.003 -0.000 -0.001 -0.004 0.000 -0.000 0.003 0.002 0.000 -0.001 0.002 -0.001 0.003 0.001 0.001 -0.005 -0.005 -0.005 0.003 0.002 -0.003 -0.001 -0.001 0.000 -0.001 0.005 0.001 -0.000 -0.003 -0.005 0.003 -0.003 0.002 -0.001 -0.003 0.003 0.004 -0.001 0.004 -0.004 -0.005 -0.003 -0.004 -0.003 0.004 0.005 0.003 -0.002 0.001 -0.000 0.002 0.001 -0.004 0.003 0.001 0.002 0.004 0.000 0.003 0.005 0.001 -0.001 0.002 0.003 -0.002 -0.004 -0.000 -0.003 -0.005 0.004 -0.003 -0.001 -0.002 -0.004 0.005 0.002 -0.004 0.005 -0.001 0.001 0.003 -0.003 -0.001 -0.001 -0.004 0.001 0.000 0.003 -0.003 0.001 0.001 0.005 -0.004 0.001 -0.002 0.003 0.004 
work 0.000 -0.004 0.002 -0.003 0.003 -0.002 0.001 0.003 0.005 -0.002 0.005 0.002 -0.004 -0.000 -0.006 0.002 0.004 -0.001 -0.006 -0.000 0.002 -0.005 -0.000 -0.004 -0.002 0.002 0.007 -0.004 -0.004 0.003 -0.000 0.003 0.005 0.003 0.003 0.004 0.004 0.001 -0.003 -0.002 0.000 0.003 0.000 0.005 -0.001 -0.004 0.002 0.004 -0.003 0.006 -0.001 0.003 0.003 -0.003 -0.004 0.003 0.006 0.008 0.006 -0.004 0.003 0.001 -0.001 0.005 0.004 -0.003 0.000 0.003 0.003 0.001 0.005 0.003 -0.004 -0.000 0.000 0.005 0.005 0.003 0.006 -0.000 -0.005 -0.001 0.005 -0.005 -0.003 -0.003 -0.002 -0.002 0.005 0.002 -0.004 0.001 -0.004 -0.002 0.001 -0.002 -0.001 -0.000 -0.002 0.001 
subcontractor -0.001 0.002 -0.002 -0.002 0.003 0.004 0.004 -0.002 0.005 -0.004 -0.002 0.004 0.003 0.002 -0.001 0.005 0.003 -0.005 -0.003 -0.003 0.000 -0.002 0.000 -0.003 0.001 -0.002 -0.004 0.004 0.004 0.003 0.004 0.000 0.004 -0.001 -0.001 -0.003 0.002 -0.004 -0.004 0.001 0.002 0.001 -0.004 -0.004 0.000 -0.003 0.001 0.004 -0.004 -0.001 -0.001 0.005 -0.004 0.001 -0.005 0.003 0.005 0.002 -0.004 -0.001 -0.000 0.005 0.000 -0.002 0.001 -0.001 0.000 0.002 -0.004 0.002 0.001 0.000 0.004 -0.004 -0.003 -0.003 0.004 -0.003 -0.005 0.005 -0.004 0.003 -0.003 -0.001 0.003 0.002 0.002 -0.002 0.004 -0.000 0.001 0.001 0.003 -0.002 -0.004 0.003 0.005 -0.002 -0.002 0.001 
boyfriend -0.004 -0.004 -0.005 -0.005 -0.001 0.003 0.003 -0.001 0.004 -0.004 -0.001 0.003 -0.004 -0.001 0.003 0.004 -0.000 0.002 -0.005 0.003 -0.004 0.005 -0.005 0.001 0.002 0.002 0.001 -0.005 -0.002 -0.002 -0.004 0.003 0.002 -0.002 -0.000 -0.002 -0.003 0.002 0.001 -0.004 0.002 -0.002 -0.002 0.001 -0.005 0.005 0.002 0.003 0.004 0.002 0.002 0.004 -0.001 0.003 -0.000 -0.001 0.002 0.001 -0.003 0.000 -0.002 0.002 0.001 -0.004 -0.003 0.000 -0.002 -0.000 -0.002 0.003 0.004 -0.003 0.003 0.002 0.001 -0.004 -0.003 0.000 -0.004 0.000 0.005 -0.004 -0.003 0.004 0.001 0.005 0.002 0.000 -0.001 -0.004 -0.001 0.005 0.002 -0.004 0.003 0.002 0.000 0.002 -0.000 0.001 
event -0.004 0.000 0.004 -0.001 0.004 0.005 0.003 0.010 0.004 -0.016 0.002 -0.002 -0.001 -0.004 -0.011 0.001 0.013 0.003 -0.016 -0.011 0.003 -0.007 -0.007 -0.002 -0.002 0.001 0.016 -0.001 0.001 0.008 -0.001 0.007 0.009 0.005 -0.000 -0.001 -0.001 0.003 -0.008 0.001 -0.006 -0.000 0.012 -0.004 -0.004 -0.005 -0.003 0.005 0.009 0.013 -0.008 0.009 0.014 -0.014 -0.003 -0.010 0.012 0.021 0.009 0.006 -0.004 -0.002 -0.005 -0.001 -0.009 0.005 0.000 0.008 0.000 -0.005 0.016 0.002 0.007 -0.009 -0.007 0.017 -0.000 -0.006 0.017 0.016 0.004 0.005 0.010 -0.008 0.001 0.001 0.007 0.007 0.002 -0.008 -0.014 0.014 -0.003 -0.002 0.006 0.011 0.005 -0.005 -0.010 0.004 
source 0.000 -0.000 -0.002 -0.002 -0.001 -0.002 0.006 -0.001 0.004 -0.004 0.005 -0.006 -0.005 -0.004 -0.005 -0.000 0.003 0.004 -0.001 -0.000 0.006 -0.001 -0.006 -0.001 -0.002 -0.003 0.008 -0.003 0.002 0.008 0.005 -0.002 0.004 0.001 0.002 -0.002 0.000 0.005 -0.001 -0.003 -0.004 0.002 0.007 0.005 -0.001 -0.002 -0.004 0.005 0.005 0.008 -0.006 0.005 0.008 -0.004 -0.004 -0.003 0.003 0.008 0.000 0.000 0.001 0.001 -0.000 0.002 0.003 0.002 0.006 0.002 0.001 -0.002 0.001 0.005 -0.003 -0.006 -0.006 0.004 -0.001 -0.009 0.010 0.009 -0.003 -0.000 0.000 -0.005 -0.001 -0.004 0.005 0.005 -0.003 0.001 -0.004 0.001 -0.002 0.003 0.002 0.004 0.006 -0.003 -0.004 0.000 
colleague -0.003 0.004 -0.001 -0.004 -0.002 0.003 0.003 -0.000 0.001 0.004 0.000 -0.004 -0.003 -0.004 0.004 0.000 -0.001 0.000 0.000 -0.005 0.000 -0.002 -0.000 -0.003 -0.005 -0.001 0.005 0.005 -0.004 0.005 -0.005 -0.002 0.002 -0.000 0.002 0.002 -0.003 0.002 0.000 0.002 -0.004 0.004 0.002 0.004 -0.004 -0.002 -0.002 -0.003 0.004 -0.001 -0.001 -0.001 0.002 -0.001 -0.004 -0.002 -0.001 -0.001 0.000 0.002 0.002 0.005 -0.002 -0.005 -0.004 -0.004 0.003 0.002 -0.001 0.000 0.002 0.002 -0.000 -0.000 0.004 -0.003 0.001 0.000 -0.003 0.003 -0.000 -0.002 0.004 0.004 -0.004 0.005 -0.003 -0.000 0.003 -0.001 -0.003 -0.003 -0.003 0.002 -0.001 0.003 0.004 0.004 0.001 -0.000 
starts -0.004 -0.004 0.005 0.005 -0.003 0.003 0.001 -0.003 -0.001 -0.003 0.005 -0.000 0.003 0.002 -0.005 -0.003 0.001 -0.004 0.003 -0.004 0.005 -0.002 0.002 0.001 0.004 -0.002 0.005 0.001 0.002 0.004 -0.003 -0.003 -0.004 0.005 0.003 0.004 -0.001 -0.003 -0.002 0.004 -0.000 -0.003 -0.004 0.003 0.004 0.001 -0.004 0.002 0.004 0.004 -0.001 -0.002 -0.001 -0.005 0.000 -0.003 -0.002 -0.002 0.005 -0.002 0.002 -0.001 -0.000 0.004 0.004 0.005 0.001 0.000 -0.004 0.000 -0.002 -0.001 -0.002 -0.001 0.002 -0.001 0.005 0.004 0.004 0.004 -0.001 -0.001 0.004 0.003 0.000 -0.001 -0.001 -0.002 -0.004 0.001 -0.002 0.003 -0.005 -0.002 0.001 0.005 0.003 0.004 0.002 -0.003 
spouse 0.001 0.001 -0.003 0.002 0.001 -0.001 -0.002 0.004 -0.005 0.001 0.004 0.003 0.001 0.005 -0.004 0.002 -0.001 -0.004 0.000 0.003 0.001 -0.000 0.000 -0.003 0.004 -0.004 -0.004 -0.004 -0.000 0.001 0.002 -0.004 -0.004 -0.004 0.003 0.004 -0.003 0.000 -0.002 -0.003 -0.000 0.005 0.001 0.004 0.002 -0.003 0.002 -0.004 -0.003 -0.004 0.003 -0.004 0.000 0.002 0.001 0.001 0.003 0.001 0.001 0.005 0.003 -0.001 0.003 -0.003 0.000 0.002 0.002 -0.001 -0.005 0.001 0.003 0.003 0.004 0.003 0.002 -0.000 -0.003 0.003 0.002 -0.001 -0.003 -0.004 0.001 -0.004 0.001 0.000 -0.002 0.004 0.004 -0.001 0.005 -0.004 0.000 0.005 -0.001 -0.005 -0.003 0.002 -0.002 -0.000 
customer 0.002 0.005 0.001 0.004 -0.001 0.001 0.002 0.002 -0.001 -0.000 0.004 -0.001 0.003 -0.002 -0.001 -0.000 0.004 0.002 -0.001 0.004 -0.001 -0.004 -0.003 -0.001 -0.002 0.001 0.003 0.000 0.003 0.004 0.001 -0.004 -0.002 0.002 -0.005 0.005 -0.002 0.003 0.005 -0.002 -0.004 0.003 -0.004 -0.001 -0.000 -0.005 0.003 -0.003 -0.000 0.003 0.001 -0.002 -0.002 0.004 -0.000 -0.001 0.002 -0.004 0.000 0.005 0.002 -0.000 0.002 -0.001 0.004 0.005 -0.005 -0.003 -0.003 0.003 0.003 -0.005 0.005 -0.002 -0.002 0.001 -0.001 0.002 -0.003 0.003 -0.005 -0.001 -0.001 0.003 0.004 -0.001 0.005 -0.002 0.000 -0.001 -0.005 -0.003 -0.003 0.000 0.001 -0.004 0.002 0.003 -0.003 -0.001 
beneficiary 0.001 -0.001 0.001 0.002 0.002 -0.004 0.005 0.002 0.002 0.003 0.001 -0.001 0.003 -0.005 0.004 -0.004 -0.003 -0.004 0.002 -0.002 0.001 -0.002 0.003 0.004 0.003 -0.005 -0.001 0.004 -0.005 -0.003 -0.004 -0.002 -0.001 -0.004 0.003 -0.004 -0.003 0.002 -0.001 -0.002 -0.005 -0.005 -0.004 -0.003 0.001 -0.002 0.004 0.004 -0.004 -0.002 -0.000 0.000 0.003 -0.004 0.002 0.001 0.003 0.003 0.005 0.004 -0.002 0.004 -0.004 0.001 0.003 0.004 0.003 0.005 0.001 0.001 0.003 -0.004 0.004 -0.005 0.001 -0.000 0.001 -0.004 -0.002 -0.004 -0.000 -0.004 -0.003 -0.001 0.005 0.005 -0.001 -0.005 0.000 0.002 0.003 0.003 0.004 0.005 -0.004 0.004 0.002 -0.004 0.004 -0.005 
financial 0.004 0.000 -0.002 -0.002 -0.004 0.003 -0.003 -0.003 -0.003 -0.003 -0.004 -0.001 -0.004 0.003 0.000 -0.004 0.002 0.001 0.000 0.003 0.002 0.002 -0.001 0.003 -0.001 0.004 0.006 -0.001 0.004 0.004 0.003 -0.003 -0.002 -0.005 -0.000 -0.004 0.000 0.005 0.002 -0.001 0.003 0.004 0.004 -0.000 0.001 0.004 0.003 -0.004 -0.002 0.001 0.002 0.001 -0.001 -0.006 0.003 -0.005 0.005 -0.001 0.002 0.004 0.005 0.000 0.002 0.001 -0.004 0.004 -0.001 0.003 0.001 0.004 0.002 -0.004 0.002 0.004 -0.005 0.004 -0.004 -0.003 0.000 -0.004 0.005 -0.000 0.003 -0.004 -0.002 -0.003 0.003 -0.001 -0.002 0.003 0.001 0.006 -0.004 0.001 0.000 -0.002 0.005 0.000 0.003 0.005 
guard -0.003 0.004 -0.001 -0.004 -0.005 -0.003 0.004 -0.004 0.002 0.002 0.004 0.004 0.001 -0.000 -0.002 0.001 0.001 -0.000 0.004 -0.001 0.001 -0.001 -0.005 0.001 0.002 0.000 -0.004 -0.000 -0.002 -0.002 0.003 -0.004 -0.000 0.004 -0.002 -0.002 -0.004 -0.005 -0.003 0.004 0.001 0.002 0.002 0.003 -0.002 -0.005 0.003 0.002 0.004 0.003 -0.004 0.002 0.001 -0.004 -0.002 -0.001 -0.002 -0.001 -0.005 -0.001 0.001 0.003 -0.002 0.004 -0.001 -0.005 0.004 -0.002 -0.005 0.002 -0.000 -0.001 -0.004 -0.000 -0.004 0.005 0.003 -0.005 -0.004 0.005 -0.003 -0.001 0.001 -0.002 0.001 -0.003 -0.002 0.002 0.003 -0.002 -0.003 -0.004 0.002 -0.001 -0.000 -0.004 -0.003 -0.000 0.001 -0.002 
conspirator 0.003 0.001 0.001 -0.004 0.003 -0.004 0.001 0.001 0.003 0.003 0.002 -0.005 0.003 0.001 0.001 0.002 -0.003 0.002 0.004 0.003 0.001 -0.004 -0.004 -0.004 -0.002 -0.004 0.001 -0.003 -0.003 0.005 -0.002 -0.003 0.002 -0.004 -0.001 0.001 0.005 0.001 0.001 0.001 0.002 0.004 0.004 -0.001 0.005 0.001 0.001 0.004 0.004 0.004 0.003 -0.001 -0.004 0.004 0.004 -0.004 -0.001 -0.005 0.002 0.001 -0.001 0.003 0.005 -0.002 -0.004 -0.005 0.004 -0.004 -0.003 -0.003 0.001 -0.001 0.001 -0.004 -0.000 -0.004 -0.001 -0.001 -0.005 0.002 0.001 0.003 0.004 0.003 0.003 -0.002 0.001 -0.005 0.000 0.002 0.003 -0.002 0.002 -0.003 -0.002 0.004 0.003 0.001 -0.004 -0.004 
takes -0.005 -0.005 -0.003 -0.005 -0.004 -0.001 0.005 0.003 -0.002 -0.005 0.005 -0.001 -0.002 0.004 0.000 0.005 0.001 -0.002 -0.000 0.001 -0.003 -0.001 -0.004 0.004 0.002 0.005 -0.004 0.000 0.003 -0.004 0.001 -0.001 -0.001 -0.002 -0.005 -0.005 0.001 -0.004 0.004 0.004 -0.005 -0.002 0.004 0.002 0.000 0.001 -0.002 -0.001 0.005 0.002 -0.000 0.004 0.002 -0.004 -0.002 0.001 -0.001 -0.002 0.002 -0.003 -0.001 0.002 0.001 -0.005 -0.003 0.003 0.003 0.003 -0.002 0.001 0.003 0.000 0.004 0.002 -0.001 -0.004 -0.004 0.004 0.001 -0.004 -0.003 0.003 -0.003 0.003 -0.002 0.001 -0.003 -0.004 -0.004 -0.002 -0.001 0.005 -0.002 0.004 0.002 -0.001 -0.002 0.003 -0.004 0.005 
place -0.002 0.001 0.004 0.003 0.005 0.003 0.004 0.005 0.001 -0.008 0.002 -0.003 -0.007 -0.003 -0.005 0.007 0.009 -0.000 -0.009 -0.008 -0.002 0.002 -0.003 -0.002 0.005 -0.003 0.010 -0.002 0.007 0.010 0.004 0.002 0.002 0.008 -0.001 -0.003 0.006 -0.003 -0.006 -0.002 -0.005 -0.004 0.002 0.005 0.003 -0.004 0.006 0.008 0.008 0.007 -0.001 0.006 0.008 -0.010 0.005 -0.008 0.002 0.013 0.004 0.003 -0.006 0.004 -0.005 0.004 -0.001 -0.000 0.004 0.009 -0.004 0.000 0.008 0.002 0.007 -0.000 -0.009 0.011 0.001 -0.004 0.008 0.015 -0.002 0.008 0.002 -0.008 -0.003 -0.006 0.006 0.001 0.006 -0.009 -0.009 0.012 0.002 -0.005 0.004 0.004 -0.001 0.003 -0.006 0.007 
after -0.001 0.001 0.004 0.001 -0.001 -0.000 -0.004 -0.001 -0.002 0.001 -0.004 0.000 -0.002 -0.005 -0.005 0.001 0.001 -0.005 -0.003 0.001 -0.002 -0.002 -0.003 0.000 0.000 -0.004 -0.000 -0.002 -0.001 0.006 -0.002 0.002 0.005 0.005 -0.004 -0.003 -0.003 -0.002 -0.004 -0.004 0.004 -0.001 0.004 -0.002 0.003 0.001 -0.004 0.002 0.000 -0.004 0.003 0.004 0.005 -0.004 0.003 -0.001 0.001 0.003 0.002 -0.001 0.004 0.002 0.004 0.005 0.003 -0.001 -0.001 0.003 0.000 -0.001 -0.003 0.001 0.003 -0.004 -0.005 -0.002 0.004 0.001 -0.001 0.001 -0.004 -0.004 -0.004 0.001 0.002 -0.001 -0.004 -0.004 0.005 0.002 -0.000 -0.000 -0.001 -0.004 0.002 -0.003 -0.002 0.001 0.003 -0.003 
trusted 0.002 0.004 -0.000 0.004 -0.004 -0.004 0.002 -0.000 0.000 -0.000 -0.004 0.003 0.003 -0.005 -0.001 0.003 0.003 0.004 -0.004 -0.005 0.002 0.003 -0.001 0.003 -0.002 0.005 0.001 0.001 0.003 -0.001 0.001 -0.000 -0.002 0.000 -0.002 -0.003 0.004 0.001 -0.005 0.000 0.003 0.004 0.004 -0.004 -0.001 -0.004 0.004 0.002 0.002 -0.004 -0.001 -0.004 0.000 -0.001 0.004 -0.001 0.003 0.001 -0.004 0.002 -0.002 0.000 0.003 0.004 0.001 0.001 -0.001 -0.002 0.003 -0.005 -0.001 -0.001 0.000 -0.004 0.001 -0.002 -0.003 0.003 -0.001 0.004 0.000 0.000 -0.003 -0.001 -0.004 -0.003 0.005 -0.004 -0.004 0.003 0.001 0.004 -0.003 0.000 -0.004 -0.005 0.004 -0.000 -0.001 -0.000 
business 0.001 0.004 0.000 0.002 -0.001 0.004 -0.001 -0.001 -0.003 -0.003 0.002 -0.003 -0.003 -0.003 0.004 0.000 -0.003 -0.000 -0.001 0.002 -0.003 0.002 -0.002 -0.004 0.004 -0.001 -0.003 -0.003 -0.004 -0.004 -0.002 -0.000 0.004 -0.003 -0.001 -0.004 -0.002 0.002 -0.002 -0.004 -0.002 -0.003 -0.003 0.004 0.005 0.001 0.003 -0.002 -0.000 -0.002 0.001 0.005 0.001 -0.001 -0.002 -0.003 -0.002 -0.004 0.001 -0.004 0.005 0.001 -0.005 0.003 -0.000 -0.000 0.003 0.002 0.001 -0.002 0.004 -0.001 -0.002 -0.004 -0.000 0.004 -0.004 -0.000 -0.003 0.002 0.002 0.002 0.001 -0.005 -0.000 0.003 0.003 0.004 0.003 -0.002 0.004 0.004 0.002 -0.003 -0.000 -0.003 -0.005 -0.001 0.002 0.002 
professor -0.003 -0.003 0.002 -0.002 0.002 0.002 -0.002 -0.002 0.001 -0.003 -0.003 0.005 0.003 0.003 -0.004 -0.004 -0.002 0.003 0.004 -0.003 -0.000 0.002 -0.002 0.003 -0.000 -0.003 -0.003 0.002 -0.005 0.000 -0.000 0.001 -0.001 0.002 0.002 -0.004 -0.003 -0.004 -0.002 -0.001 -0.000 0.005 0.002 0.003 -0.000 0.005 0.005 -0.002 0.004 -0.003 -0.004 0.001 -0.003 -0.002 0.002 0.001 -0.003 -0.004 -0.003 0.005 -0.004 0.005 0.002 0.002 -0.004 -0.003 0.002 0.004 0.003 0.004 -0.000 0.002 0.000 0.004 -0.002 0.005 -0.004 -0.002 0.002 0.001 -0.004 -0.001 -0.004 -0.005 0.005 0.002 -0.003 -0.005 -0.002 -0.000 0.002 0.005 0.005 0.004 0.003 0.000 -0.003 -0.002 -0.001 0.004 
accomplice 0.001 -0.002 -0.003 0.000 0.002 0.004 0.002 -0.004 -0.004 -0.003 0.003 -0.000 -0.002 0.001 -0.001 -0.003 0.004 -0.001 -0.005 0.000 0.003 -0.002 0.001 -0.004 -0.003 0.000 -0.001 -0.002 -0.005 0.002 0.002 -0.004 0.004 -0.002 0.003 0.002 -0.002 0.005 0.001 0.005 -0.002 -0.001 0.001 0.003 -0.001 0.002 -0.003 0.005 0.003 0.001 0.002 -0.004 -0.004 -0.005 -0.002 -0.001 -0.002 -0.002 0.000 0.002 -0.005 0.004 0.005 0.003 0.002 -0.000 0.005 -0.000 -0.004 0.001 -0.003 0.005 0.003 0.000 -0.003 -0.000 0.002 -0.003 -0.001 0.001 -0.003 0.000 0.001 -0.002 -0.000 -0.004 -0.001 -0.003 -0.002 0.002 0.001 -0.002 0.003 -0.002 0.002 -0.003 0.000 0.002 0.001 -0.001 
mother 0.001 -0.000 0.005 0.002 -0.001 0.001 0.000 0.004 0.001 -0.006 -0.004 -0.002 0.004 -0.004 -0.004 0.004 0.000 -0.004 0.001 -0.005 0.002 0.003 -0.001 -0.001 0.001 -0.002 0.001 0.002 0.005 -0.003 -0.003 -0.004 -0.001 0.005 0.002 0.002 0.003 0.001 0.000 -0.004 0.004 0.000 0.004 -0.001 -0.003 -0.001 0.001 0.002 0.005 0.005 0.004 0.004 -0.000 -0.000 0.001 0.001 0.004 0.002 0.001 -0.001 -0.003 -0.003 0.004 -0.005 0.003 -0.000 0.000 0.004 0.004 0.003 0.004 0.002 0.001 -0.006 0.003 -0.002 0.003 -0.000 0.005 0.002 0.005 -0.001 -0.000 -0.000 -0.001 -0.004 0.002 0.005 0.002 -0.005 -0.003 0.007 -0.004 -0.000 0.000 -0.003 -0.000 -0.003 -0.006 -0.003 
analyst 0.003 0.004 -0.005 -0.005 0.001 -0.002 0.001 -0.004 0.000 0.002 0.005 0.002 -0.001 -0.001 0.005 0.003 0.000 0.003 0.005 0.003 0.003 -0.000 -0.003 0.004 0.003 0.002 -0.001 -0.001 -0.004 0.004 -0.002 -0.004 -0.001 -0.005 0.001 -0.005 -0.003 0.002 -0.004 0.000 -0.005 0.002 0.005 0.000 0.004 0.004 0.000 -0.004 0.004 -0.004 0.004 0.003 -0.003 -0.004 -0.005 0.003 0.002 -0.003 0.005 -0.002 -0.004 0.002 -0.001 -0.004 -0.004 -0.004 0.000 0.001 0.004 -0.003 -0.002 0.000 -0.004 -0.003 -0.001 0.001 -0.003 -0.001 0.003 -0.004 -0.001 -0.005 -0.004 0.000 0.005 -0.003 0.004 -0.004 -0.004 0.000 -0.002 0.004 0.002 0.003 0.003 -0.002 -0.003 0.001 -0.001 -0.001 
before 0.004 -0.001 0.003 -0.005 0.004 -0.001 -0.004 -0.003 0.002 0.003 0.001 -0.003 -0.004 0.004 0.001 0.003 0.006 -0.003 -0.003 0.003 -0.004 -0.003 0.002 -0.004 0.001 -0.002 0.006 0.002 0.000 0.005 -0.000 0.001 0.000 0.005 0.002 -0.004 -0.005 -0.003 -0.002 -0.002 -0.003 0.000 -0.003 -0.002 0.003 -0.002 0.001 0.005 -0.005 -0.000 0.004 -0.003 0.002 -0.002 0.004 0.004 0.005 0.005 0.003 0.001 0.004 0.005 0.004 -0.004 -0.003 -0.003 0.002 0.001 -0.000 -0.004 -0.002 -0.001 0.004 0.000 -0.006 0.004 -0.002 -0.001 -0.003 0.004 -0.000 0.003 0.004 -0.002 0.001 0.001 0.002 0.004 -0.003 0.001 -0.006 0.000 0.003 0.001 0.001 0.000 0.002 -0.005 -0.005 -0.002 
service 0.004 -0.003 -0.004 0.001 0.003 0.006 -0.001 0.006 -0.001 -0.002 -0.005 0.001 0.004 -0.003 -0.003 0.001 -0.002 0.004 0.003 -0.003 -0.000 0.003 -0.004 -0.003 -0.004 -0.004 0.005 -0.004 0.004 0.005 -0.001 0.001 0.003 0.001 0.003 0.004 -0.004 -0.003 0.003 0.003 -0.000 0.005 0.006 -0.005 -0.003 0.002 -0.001 -0.003 -0.001 0.005 -0.005 -0.002 0.005 -0.003 -0.005 0.003 0.005 0.005 0.002 -0.004 0.004 0.004 0.004 0.005 0.001 -0.001 0.001 -0.002 0.003 0.003 0.006 -0.005 0.002 -0.004 -0.003 0.005 0.003 0.000 0.004 0.001 0.003 -0.002 0.003 -0.004 -0.003 -0.003 -0.002 0.005 0.001 -0.004 -0.005 0.005 0.003 -0.005 0.001 0.006 0.001 0.004 0.003 0.003 
subsumes -0.004 0.004 -0.003 -0.004 -0.001 -0.004 -0.005 -0.003 0.005 0.001 0.002 -0.001 -0.000 -0.002 -0.004 -0.004 -0.001 -0.004 -0.005 -0.004 -0.005 -0.000 -0.001 -0.002 -0.001 -0.004 0.004 -0.004 0.000 0.001 0.004 0.000 0.001 -0.003 -0.003 0.004 0.002 -0.003 0.002 -0.002 -0.004 -0.003 -0.003 0.003 -0.001 -0.002 0.003 0.004 -0.002 0.002 -0.002 -0.001 0.002 0.003 0.004 0.004 0.005 -0.002 -0.002 0.002 -0.003 0.004 -0.001 0.001 -0.003 -0.003 0.003 -0.004 0.005 0.003 0.004 0.001 0.000 0.003 -0.001 -0.000 0.004 0.001 -0.002 -0.002 0.003 -0.001 0.004 -0.005 -0.001 -0.002 -0.003 0.002 -0.002 -0.001 -0.005 0.001 0.002 -0.001 -0.003 -0.003 0.002 0.003 0.000 -0.004 
beginning 0.003 0.005 0.005 -0.000 0.004 -0.001 0.003 0.002 0.002 -0.005 -0.005 0.003 -0.003 -0.004 -0.004 -0.003 0.005 -0.002 -0.001 -0.001 -0.003 -0.005 -0.001 -0.000 0.004 0.005 -0.000 0.001 0.003 0.004 0.000 -0.001 -0.001 -0.002 0.003 0.002 0.002 0.002 0.003 -0.003 -0.005 -0.004 -0.002 0.000 -0.003 0.003 0.001 -0.003 -0.002 0.001 -0.002 -0.004 -0.002 -0.003 -0.004 -0.001 0.003 0.003 0.005 0.005 -0.001 0.001 -0.000 -0.004 0.001 0.003 0.000 0.001 0.003 0.004 0.002 -0.005 -0.001 -0.006 0.000 0.003 0.000 -0.005 0.003 0.002 -0.003 0.001 0.005 0.004 0.002 -0.004 0.002 -0.002 -0.004 -0.002 -0.002 0.003 -0.002 -0.003 -0.001 0.003 -0.001 -0.003 0.001 -0.004 
instrument -0.004 -0.002 -0.002 -0.001 -0.002 -0.001 0.006 0.004 0.002 -0.006 0.001 -0.005 0.000 -0.005 -0.003 -0.002 0.006 -0.003 -0.006 -0.006 0.002 0.003 0.003 -0.001 -0.001 -0.004 0.003 -0.001 0.002 0.004 -0.002 -0.000 0.006 0.004 -0.001 -0.006 0.002 -0.002 0.001 0.003 0.003 0.001 0.000 0.002 -0.001 0.004 -0.003 0.001 -0.002 0.003 -0.005 -0.004 -0.002 -0.002 0.001 -0.006 0.001 0.000 -0.003 -0.002 0.003 -0.003 -0.000 0.001 0.003 -0.000 -0.000 0.001 -0.003 0.001 -0.003 -0.002 -0.003 -0.006 -0.005 0.005 0.000 -0.002 0.005 0.003 0.005 0.006 0.000 -0.007 0.004 -0.001 0.006 0.005 0.004 0.001 0.002 0.004 0.002 -0.005 0.002 0.001 -0.002 -0.005 0.003 0.002 
action 0.006 0.002 0.001 0.003 0.003 0.011 0.006 0.003 0.005 -0.008 0.000 -0.010 -0.006 -0.002 -0.005 0.004 0.011 0.001 -0.014 -0.007 0.001 -0.001 -0.004 0.000 0.000 -0.004 0.013 -0.001 -0.001 0.013 -0.000 0.001 0.006 -0.001 0.000 -0.007 0.006 -0.003 -0.000 -0.001 0.002 0.005 0.007 0.005 -0.002 -0.003 0.003 0.001 0.003 0.014 0.001 0.001 0.012 -0.014 -0.003 -0.008 0.006 0.016 0.001 0.006 -0.001 0.001 0.002 -0.001 -0.004 0.005 0.002 0.010 -0.005 -0.001 0.013 0.000 -0.001 -0.007 -0.009 0.019 0.006 -0.006 0.014 0.016 0.003 0.006 0.008 -0.011 -0.007 -0.003 0.007 -0.002 0.006 -0.002 -0.006 0.016 -0.003 0.003 0.006 0.007 0.008 -0.002 -0.006 -0.001 
referenced 0.005 -0.004 0.001 -0.001 0.005 0.002 -0.001 -0.004 -0.004 0.003 0.001 0.005 -0.004 -0.003 0.002 0.003 -0.004 0.001 -0.001 0.001 0.004 -0.000 -0.002 0.001 0.002 -0.003 -0.002 -0.002 -0.003 0.003 -0.001 0.003 0.002 0.001 -0.003 0.003 0.005 0.005 -0.005 -0.003 0.001 0.001 -0.004 0.003 0.004 -0.004 0.005 0.004 -0.002 -0.004 0.001 0.001 0.000 -0.002 -0.003 -0.005 0.001 0.001 0.003 -0.001 -0.001 0.005 -0.000 -0.000 -0.004 -0.002 -0.002 0.004 -0.002 -0.004 -0.004 -0.005 -0.002 -0.003 0.004 0.001 -0.003 -0.001 0.005 0.002 0.003 -0.002 0.003 -0.004 -0.001 -0.001 -0.000 -0.005 0.001 0.003 0.004 -0.003 -0.000 -0.001 0.003 0.004 0.001 0.004 -0.001 0.002 
cotemporal 0.005 0.001 -0.001 0.005 -0.004 -0.000 0.003 -0.001 -0.004 -0.002 -0.001 -0.004 0.002 -0.001 0.002 -0.002 -0.001 0.002 -0.002 0.002 0.003 0.001 -0.000 -0.003 0.001 0.003 -0.001 -0.003 -0.000 -0.001 0.000 -0.005 0.001 0.005 -0.000 0.002 0.003 0.000 0.004 -0.005 0.005 -0.005 -0.003 0.003 0.002 -0.000 0.002 -0.001 -0.004 0.003 0.003 -0.003 -0.002 0.001 -0.000 -0.001 -0.002 0.001 0.001 -0.003 -0.005 -0.001 0.004 0.004 -0.000 0.001 0.005 0.003 -0.001 -0.001 0.004 0.005 0.001 0.004 0.002 -0.001 -0.002 0.003 0.003 0.000 0.001 -0.000 0.001 -0.002 0.004 -0.002 0.001 -0.005 0.000 0.005 0.004 -0.002 -0.004 -0.004 0.005 0.001 0.004 0.001 0.005 -0.001 
with 0.000 0.003 -0.002 0.004 0.008 0.012 0.011 0.014 0.005 -0.018 0.007 -0.007 0.002 -0.002 -0.011 0.006 0.007 0.002 -0.014 -0.006 -0.001 -0.004 -0.012 -0.001 -0.003 0.006 0.016 -0.004 0.009 0.009 -0.004 0.004 0.011 0.003 0.003 -0.004 -0.002 -0.002 -0.005 0.001 -0.005 -0.002 0.009 0.003 -0.002 -0.007 -0.000 0.009 0.005 0.012 -0.004 0.001 0.007 -0.016 -0.002 -0.007 0.007 0.021 0.003 0.005 -0.007 0.004 -0.001 -0.000 0.001 0.007 0.001 0.008 -0.000 0.001 0.010 0.001 0.004 -0.004 -0.007 0.018 0.001 -0.008 0.021 0.020 -0.002 0.002 0.003 -0.005 -0.001 -0.006 0.013 0.003 0.003 -0.007 -0.011 0.014 -0.003 0.002 0.006 0.012 0.008 -0.003 -0.007 0.000 
belongs -0.004 0.000 -0.003 0.003 0.003 0.001 -0.003 -0.003 -0.002 0.000 -0.005 -0.001 0.001 -0.001 0.003 -0.004 0.003 0.005 -0.005 -0.000 0.004 -0.001 0.002 0.001 -0.001 0.005 -0.002 0.003 -0.003 -0.001 -0.003 -0.003 0.004 0.001 0.005 -0.003 -0.000 -0.003 -0.003 -0.002 0.004 0.003 -0.002 0.001 -0.000 0.004 0.002 -0.004 0.005 0.002 -0.004 0.005 0.002 0.002 0.004 -0.005 -0.001 0.001 0.004 0.002 0.001 -0.003 0.005 -0.003 0.001 -0.002 0.003 -0.004 -0.004 0.002 0.000 -0.000 0.001 -0.000 -0.005 0.002 -0.001 -0.002 0.004 0.004 0.001 0.002 0.005 -0.005 0.002 0.004 0.001 0.004 -0.000 -0.004 0.003 -0.001 0.002 0.001 0.000 -0.002 0.001 0.001 0.004 0.002 
many -0.001 -0.002 0.003 0.005 -0.001 0.002 -0.004 -0.001 0.004 -0.004 0.001 0.001 0.004 0.003 0.000 -0.004 0.003 -0.002 -0.001 -0.002 -0.004 0.003 0.003 -0.002 0.001 0.005 -0.002 0.003 0.003 0.004 -0.004 -0.000 0.004 -0.003 -0.001 -0.003 -0.001 0.001 0.002 -0.002 0.001 0.001 -0.004 0.002 -0.000 0.001 0.000 0.004 -0.003 0.000 -0.003 -0.003 -0.003 0.000 0.003 -0.000 -0.003 0.002 0.003 0.004 0.001 -0.005 -0.001 -0.001 0.004 0.001 0.004 0.000 0.004 -0.001 -0.004 0.002 -0.003 -0.004 0.002 -0.002 0.002 -0.001 -0.002 -0.003 0.002 0.003 0.000 -0.001 0.001 -0.001 0.003 -0.000 0.001 -0.004 0.001 0.005 0.005 0.001 0.003 -0.003 0.000 -0.002 -0.001 -0.002 
organism -0.001 0.004 -0.000 0.004 -0.004 -0.005 -0.004 -0.003 0.001 -0.001 -0.004 0.004 -0.002 -0.004 0.000 0.002 0.005 0.003 0.003 0.002 0.002 0.002 -0.002 -0.000 -0.003 0.005 -0.001 0.005 -0.001 0.003 -0.002 0.003 -0.003 0.001 -0.002 -0.003 0.003 -0.001 -0.004 0.004 -0.001 0.004 0.001 0.001 0.000 0.000 -0.001 0.001 0.004 -0.004 0.002 0.002 -0.005 0.004 0.002 -0.002 0.001 -0.002 0.001 -0.002 -0.001 -0.002 -0.005 -0.003 -0.003 -0.001 -0.002 0.002 -0.000 -0.000 -0.000 -0.004 0.002 -0.002 -0.004 -0.002 0.003 0.003 -0.003 -0.001 -0.002 -0.003 0.003 -0.002 -0.003 0.002 -0.003 0.003 0.003 0.003 -0.003 -0.001 -0.001 0.005 -0.002 -0.004 0.003 -0.003 -0.005 0.002 
transmission 0.004 -0.004 0.002 0.003 -0.000 0.005 -0.003 -0.001 -0.003 0.002 -0.002 -0.004 -0.000 0.002 -0.004 0.001 0.005 0.004 -0.002 0.002 -0.001 0.000 -0.002 0.001 -0.001 0.001 0.001 -0.002 -0.001 0.000 0.002 -0.000 -0.003 0.004 0.002 0.004 -0.002 0.003 0.005 0.002 0.004 0.000 0.000 0.000 0.000 -0.002 0.000 -0.003 0.001 0.005 0.003 0.003 -0.004 -0.002 -0.003 -0.000 -0.003 -0.005 -0.004 -0.005 -0.002 0.001 -0.000 0.004 -0.004 0.004 -0.004 0.001 0.003 0.003 0.001 0.003 0.002 0.003 -0.003 0.002 0.002 -0.002 -0.005 -0.005 0.004 0.002 -0.004 0.004 0.001 0.005 -0.004 -0.002 -0.004 0.005 -0.001 -0.000 0.004 -0.002 0.003 0.001 0.001 0.002 -0.003 -0.003 
lives -0.000 0.003 0.005 -0.002 -0.002 0.002 0.005 0.004 0.000 -0.001 -0.003 0.003 -0.000 0.001 -0.005 0.004 0.004 -0.000 -0.003 0.001 0.004 -0.000 0.002 -0.002 -0.003 -0.003 -0.000 0.004 -0.002 -0.003 0.000 0.003 0.004 -0.003 0.001 -0.004 -0.002 0.003 -0.005 -0.004 -0.001 0.003 0.003 0.000 -0.005 -0.002 0.002 0.002 -0.004 0.004 -0.002 0.000 -0.001 0.003 0.003 -0.001 -0.004 -0.001 0.005 0.001 -0.004 0.004 0.001 0.003 0.001 0.005 -0.001 -0.002 -0.004 0.001 0.004 -0.000 -0.003 0.001 -0.004 0.005 -0.005 -0.002 0.003 -0.004 -0.002 -0.004 0.005 0.002 -0.003 0.002 -0.000 0.001 -0.001 -0.003 -0.005 0.005 -0.001 -0.002 0.001 -0.000 0.004 0.002 -0.005 0.002 
in 0.005 0.000 0.009 0.009 0.018 0.020 0.008 0.017 0.002 -0.036 0.006 -0.015 -0.006 -0.005 -0.022 0.009 0.018 0.003 -0.024 -0.017 0.012 -0.011 -0.012 -0.006 0.006 0.005 0.027 -0.008 0.011 0.022 0.001 0.012 0.015 0.007 0.004 -0.002 0.004 -0.004 -0.012 0.009 -0.005 0.000 0.017 0.005 -0.006 -0.005 0.005 0.017 0.015 0.027 -0.005 0.005 0.016 -0.031 0.004 -0.019 0.014 0.037 0.016 -0.001 -0.002 0.003 -0.001 -0.000 -0.004 0.011 0.008 0.014 0.004 0.001 0.020 0.003 0.008 -0.019 -0.026 0.032 0.014 -0.017 0.038 0.042 -0.002 0.010 0.015 -0.021 -0.005 0.000 0.019 0.012 -0.001 -0.020 -0.029 0.027 0.000 -0.003 0.022 0.012 0.015 -0.004 -0.020 0.007 
grandmother -0.002 -0.000 0.005 0.001 0.002 -0.005 -0.004 0.001 0.005 0.005 0.003 -0.002 -0.002 0.001 -0.001 -0.003 0.004 -0.002 -0.003 -0.002 0.004 0.003 -0.000 0.004 -0.002 -0.005 -0.004 0.004 0.001 -0.002 0.001 -0.002 0.005 -0.001 -0.002 -0.001 -0.004 0.003 -0.004 -0.001 -0.000 0.002 -0.005 -0.005 0.003 0.005 -0.004 -0.003 0.000 -0.001 0.004 0.005 -0.002 -0.005 -0.001 0.003 -0.003 -0.004 -0.003 -0.004 0.004 -0.001 -0.001 -0.003 0.003 -0.002 -0.002 -0.001 0.002 -0.005 -0.001 -0.000 -0.004 0.004 -0.005 -0.000 -0.003 -0.002 -0.004 0.001 -0.004 -0.001 -0.001 0.001 0.005 0.001 -0.003 0.003 0.003 0.000 0.000 -0.003 -0.002 -0.004 0.003 0.002 0.003 0.004 -0.000 0.002 
age 0.004 0.003 -0.005 -0.003 0.003 0.000 -0.002 -0.004 -0.004 0.002 0.002 0.002 -0.002 0.003 0.002 -0.004 0.003 -0.005 -0.002 0.001 0.002 -0.001 -0.005 -0.003 -0.002 0.002 -0.003 -0.003 -0.000 -0.001 -0.005 0.004 -0.003 -0.004 0.002 0.004 -0.001 -0.002 0.004 -0.003 -0.002 0.002 0.004 -0.003 0.003 0.000 -0.004 0.003 -0.004 0.002 0.004 0.004 -0.002 -0.005 0.003 -0.001 -0.003 -0.000 -0.001 0.002 0.004 -0.002 0.004 0.004 0.004 0.001 -0.002 0.005 -0.000 0.001 -0.002 0.000 0.004 -0.003 -0.002 0.005 0.004 -0.004 -0.004 -0.001 -0.004 0.003 -0.001 0.000 -0.001 -0.005 0.001 -0.004 -0.002 0.000 0.004 -0.001 -0.000 -0.004 0.002 0.005 -0.002 -0.004 -0.004 0.004 
received -0.004 0.003 -0.001 -0.000 -0.004 0.005 -0.004 0.004 -0.004 -0.004 0.002 0.002 -0.004 0.003 -0.001 -0.002 -0.004 -0.002 0.004 -0.001 -0.002 -0.000 0.001 0.004 -0.004 -0.003 0.003 -0.001 -0.004 0.004 -0.004 -0.004 -0.005 -0.003 -0.002 -0.002 0.003 0.003 0.004 0.003 0.004 0.003 -0.001 0.002 0.001 -0.001 0.002 -0.003 -0.000 -0.001 -0.001 0.001 0.001 0.003 0.002 0.002 0.001 -0.004 0.001 0.003 0.001 -0.004 0.004 -0.003 0.001 0.001 0.001 0.004 0.001 0.005 0.000 0.001 -0.004 -0.004 0.003 0.000 -0.002 -0.004 0.001 -0.002 0.003 0.005 0.004 -0.001 -0.004 0.003 -0.004 0.001 0.004 -0.003 0.005 0.003 -0.002 -0.005 0.001 -0.002 -0.002 -0.000 0.002 0.001 
procedure 0.001 0.002 -0.002 0.002 -0.004 -0.001 -0.004 -0.002 0.005 0.000 0.004 0.001 0.001 -0.004 0.004 0.001 0.000 -0.004 -0.005 0.003 0.003 -0.000 -0.001 -0.004 0.003 -0.002 0.002 -0.001 0.000 0.002 -0.003 0.004 0.005 0.005 -0.003 -0.005 -0.000 0.001 -0.004 0.003 -0.000 -0.001 -0.003 -0.003 -0.003 -0.001 -0.003 -0.002 -0.001 0.005 0.004 -0.005 -0.004 -0.002 -0.002 -0.004 0.005 -0.002 0.000 -0.003 -0.002 0.005 -0.005 -0.003 -0.002 -0.003 0.003 0.001 0.003 -0.003 0.005 -0.002 -0.003 -0.000 -0.000 -0.003 -0.004 0.001 0.002 0.004 0.001 0.004 -0.001 0.003 0.001 -0.004 -0.002 -0.001 0.005 0.004 0.002 0.004 0.004 -0.000 -0.002 -0.004 0.000 -0.000 0.000 0.004 
income -0.005 0.004 -0.003 0.004 -0.002 0.001 0.002 0.000 0.004 0.001 -0.002 -0.002 -0.003 -0.001 -0.002 0.003 0.001 -0.001 0.001 -0.001 0.001 -0.001 -0.005 0.003 0.000 -0.005 -0.002 0.004 0.001 0.001 -0.004 0.005 -0.004 -0.003 -0.003 -0.003 0.004 -0.000 0.000 -0.002 -0.001 0.002 0.005 -0.002 0.004 0.002 -0.000 -0.002 -0.002 -0.003 -0.004 -0.003 0.000 0.003 -0.001 0.002 -0.005 0.001 0.000 0.005 0.005 0.000 -0.003 0.005 0.001 0.003 -0.004 -0.004 0.004 -0.004 0.003 0.004 -0.001 -0.001 -0.005 -0.001 -0.000 0.003 0.005 0.002 0.001 -0.000 0.003 -0.001 -0.004 0.005 -0.003 -0.002 0.003 0.002 0.001 0.004 0.001 0.004 0.003 0.001 0.003 0.000 -0.004 -0.002 
level 0.002 -0.004 0.003 0.004 0.001 0.005 0.005 0.003 -0.001 -0.002 -0.003 0.002 -0.005 -0.000 0.001 0.003 0.003 -0.003 0.003 -0.006 -0.002 0.001 0.003 -0.003 0.004 -0.002 0.005 -0.004 -0.001 0.005 0.005 -0.003 0.004 0.000 0.002 0.000 0.003 0.003 0.001 0.005 0.003 0.000 0.000 0.002 0.003 -0.001 -0.002 -0.004 0.003 -0.001 0.003 0.004 -0.002 -0.001 0.003 0.000 -0.001 0.001 0.002 0.004 0.004 -0.003 0.004 -0.003 -0.002 -0.000 0.001 0.002 0.002 0.001 0.003 0.003 -0.003 0.001 -0.003 -0.001 0.004 0.004 0.002 0.000 0.005 0.002 -0.003 -0.003 -0.000 -0.004 0.006 0.002 -0.002 -0.005 -0.003 -0.001 0.004 0.003 0.003 -0.002 0.005 -0.000 -0.002 0.002 
child 0.004 0.001 -0.005 -0.004 0.004 0.002 0.002 0.003 -0.004 -0.003 0.003 -0.005 -0.004 0.000 -0.004 0.003 -0.005 0.003 -0.005 -0.005 0.002 0.005 -0.002 -0.000 -0.004 -0.002 0.002 -0.002 -0.003 0.002 0.002 0.004 0.002 0.003 -0.003 -0.002 -0.005 0.001 0.003 0.003 0.001 0.002 -0.001 -0.004 0.002 0.003 0.001 0.005 0.004 0.001 0.003 0.001 -0.002 -0.004 -0.004 0.002 -0.005 0.005 0.001 -0.002 0.004 0.004 0.004 0.002 0.000 -0.002 -0.000 0.003 0.000 -0.004 0.005 0.004 0.005 0.000 0.000 0.003 0.002 0.003 0.002 0.003 0.003 -0.004 -0.000 -0.003 -0.002 0.004 0.004 0.004 -0.003 0.003 -0.001 0.005 -0.003 -0.001 -0.005 -0.001 0.001 -0.004 0.003 0.003 
sibling -0.002 0.002 -0.004 0.005 0.003 0.002 -0.005 -0.003 -0.005 -0.001 -0.004 -0.003 -0.002 -0.005 -0.004 0.002 -0.004 -0.004 0.002 -0.000 0.005 0.004 -0.000 0.002 -0.002 0.005 -0.000 0.003 0.003 -0.003 0.004 -0.003 -0.002 0.000 -0.005 0.001 -0.003 0.001 0.003 -0.001 -0.001 0.004 -0.000 -0.005 0.003 0.000 0.004 -0.003 0.002 -0.003 -0.002 -0.002 0.003 0.003 0.004 0.003 -0.002 0.002 0.001 -0.000 -0.003 -0.004 -0.004 0.002 0.001 -0.003 0.003 0.004 -0.004 0.004 0.002 0.005 0.000 0.001 -0.003 -0.002 0.002 0.004 0.002 0.000 0.002 0.001 0.002 -0.004 0.001 0.004 0.005 -0.004 -0.004 -0.003 -0.001 -0.001 0.004 -0.003 -0.003 -0.001 -0.001 0.004 -0.004 0.004 
physically -0.004 -0.002 0.001 -0.001 0.000 0.001 0.005 0.004 0.005 0.002 -0.005 -0.003 -0.002 0.001 0.000 0.003 0.005 0.004 -0.002 -0.003 0.004 0.003 -0.004 0.004 0.002 0.005 0.004 -0.004 0.000 0.004 0.001 -0.003 -0.000 -0.001 0.004 0.004 0.003 0.002 0.003 0.004 -0.001 -0.003 0.004 0.002 0.002 0.002 -0.001 0.006 -0.003 0.002 -0.004 -0.002 0.005 -0.002 -0.003 -0.001 0.001 0.002 -0.002 -0.001 -0.004 0.001 -0.002 0.002 -0.005 0.003 -0.002 0.004 0.003 -0.002 -0.003 0.003 0.005 -0.001 -0.005 -0.002 -0.003 -0.000 -0.002 0.006 -0.003 -0.001 0.001 -0.001 -0.001 0.003 -0.003 0.003 -0.000 0.004 -0.004 0.006 -0.002 0.002 -0.002 0.004 0.006 -0.005 -0.003 -0.003 
abused -0.002 -0.005 -0.004 -0.000 0.000 0.003 0.004 0.002 0.005 -0.001 0.002 -0.001 -0.005 0.003 -0.005 0.005 -0.003 -0.002 -0.003 0.003 0.002 0.002 -0.004 -0.003 -0.000 -0.004 -0.000 0.000 0.000 -0.003 -0.005 -0.002 -0.002 0.004 0.002 0.002 0.005 0.004 -0.001 -0.002 -0.003 -0.002 0.001 0.003 0.005 -0.000 0.004 0.004 0.003 -0.002 -0.005 0.004 0.006 -0.003 0.001 0.003 0.002 0.007 0.004 0.003 -0.004 0.005 0.000 -0.004 0.001 0.002 0.005 0.004 0.004 -0.002 -0.001 0.004 -0.002 0.002 -0.006 0.004 0.006 -0.004 -0.000 0.000 -0.002 0.003 0.000 -0.003 -0.004 0.000 -0.003 -0.003 0.001 -0.001 -0.007 0.007 0.001 -0.001 0.007 0.006 -0.002 -0.004 -0.005 0.005 
divorced 0.002 0.003 0.003 -0.003 0.003 -0.003 -0.003 -0.003 0.000 -0.006 -0.001 -0.003 -0.002 0.001 0.003 0.003 0.002 -0.002 -0.002 -0.004 0.004 0.004 -0.002 -0.002 -0.005 0.001 -0.003 0.002 -0.004 -0.003 0.001 0.005 0.000 -0.000 0.002 -0.000 0.004 0.003 0.002 0.001 -0.002 -0.001 -0.001 -0.001 -0.004 -0.001 -0.002 0.004 -0.002 0.004 0.000 0.002 0.000 -0.003 -0.004 -0.002 -0.002 0.005 -0.003 -0.002 0.002 -0.003 0.001 -0.004 0.001 -0.005 0.003 0.002 -0.001 0.001 0.004 0.000 0.003 -0.002 -0.002 0.004 0.002 -0.002 0.000 0.004 0.003 -0.002 -0.002 0.003 0.004 0.002 -0.002 -0.002 -0.003 -0.003 -0.002 0.000 -0.001 0.001 0.005 -0.000 0.001 -0.004 -0.004 0.003 
older 0.004 0.000 0.003 -0.005 0.002 -0.004 -0.001 0.001 -0.002 0.001 -0.000 -0.004 -0.004 -0.003 -0.002 -0.000 0.000 -0.003 0.002 0.004 -0.002 -0.003 0.001 -0.004 0.002 -0.002 -0.003 0.003 0.002 0.005 -0.004 0.004 -0.002 -0.001 0.000 -0.004 0.004 -0.003 -0.002 0.003 0.001 0.004 0.000 0.002 0.001 0.003 -0.002 -0.002 0.004 -0.005 -0.001 -0.005 -0.004 0.003 0.001 -0.002 0.002 -0.000 0.002 0.003 -0.002 -0.003 0.004 0.001 -0.004 0.005 0.002 0.005 -0.001 0.005 0.001 -0.003 -0.003 -0.005 -0.004 -0.003 -0.000 0.003 0.003 -0.003 -0.002 -0.002 0.000 -0.002 0.003 0.004 0.005 0.003 -0.000 0.002 -0.002 0.002 0.001 0.002 -0.004 0.004 -0.003 0.002 -0.004 -0.005 
aunt 0.005 -0.004 0.004 0.000 -0.003 0.005 -0.002 0.000 0.003 -0.001 0.005 -0.000 0.003 0.002 0.001 0.000 0.002 0.004 0.002 0.002 0.004 0.003 -0.003 0.003 0.004 0.004 0.001 0.002 -0.003 0.003 -0.004 0.004 0.004 -0.005 0.002 -0.003 -0.005 0.004 0.001 0.004 -0.001 -0.005 0.003 -0.002 -0.004 0.000 0.005 -0.001 -0.002 0.004 -0.002 0.002 -0.001 -0.005 0.001 0.001 0.003 -0.003 -0.000 -0.003 -0.005 0.004 -0.003 0.002 -0.004 -0.000 -0.001 0.003 -0.003 0.004 -0.003 -0.002 -0.001 -0.001 0.000 -0.000 0.004 0.000 0.001 0.004 -0.003 0.003 0.001 -0.002 -0.002 0.001 -0.001 0.003 0.001 -0.002 -0.004 0.003 -0.004 0.004 0.000 0.002 -0.000 0.000 -0.001 0.001 
housing -0.002 0.002 -0.004 -0.004 -0.003 -0.001 0.002 0.002 -0.003 -0.002 0.003 0.000 -0.003 -0.003 0.001 0.001 0.002 -0.001 0.004 0.003 -0.005 -0.003 -0.002 0.001 0.002 0.004 -0.002 0.001 0.002 0.000 -0.000 -0.001 -0.001 -0.001 -0.001 -0.003 -0.000 -0.003 0.002 -0.001 -0.004 -0.002 0.001 0.000 -0.000 -0.002 -0.000 -0.001 -0.001 0.000 -0.002 0.002 0.001 -0.004 0.003 0.003 0.001 0.001 -0.004 -0.001 -0.003 -0.004 -0.005 0.002 -0.004 0.002 -0.004 -0.005 -0.002 0.000 0.003 0.003 0.001 0.001 -0.004 0.004 0.005 -0.001 -0.001 0.002 -0.000 0.000 -0.002 0.003 -0.004 0.002 -0.002 0.003 -0.003 -0.005 -0.004 0.000 -0.002 0.004 0.001 -0.000 -0.002 0.003 0.001 -0.005 
circumstances 0.003 0.000 -0.001 -0.003 -0.003 -0.001 0.002 -0.002 -0.003 -0.004 -0.002 0.003 0.004 -0.002 0.002 0.003 -0.003 -0.001 0.003 -0.002 0.002 -0.003 0.003 -0.002 0.004 -0.003 0.002 -0.001 -0.002 0.000 0.001 0.004 0.002 0.005 -0.001 -0.001 0.000 -0.003 0.003 -0.003 0.005 0.005 -0.002 -0.003 -0.001 -0.001 -0.000 -0.004 0.003 -0.000 0.001 -0.001 -0.002 -0.004 0.002 0.004 -0.002 -0.003 0.004 -0.002 -0.002 -0.002 -0.001 -0.004 0.002 0.002 0.004 -0.002 0.004 0.005 0.004 0.004 -0.002 0.001 0.002 0.001 0.001 -0.003 0.001 -0.003 0.000 -0.003 0.004 -0.002 -0.002 0.002 0.002 -0.000 -0.002 0.003 0.004 0.001 -0.002 -0.003 0.001 -0.004 0.003 0.002 -0.003 0.001 
separated 0.001 0.004 0.004 0.005 -0.001 -0.004 -0.003 -0.001 -0.002 -0.004 -0.003 -0.002 -0.004 -0.003 -0.005 0.005 0.003 0.005 -0.002 -0.004 0.004 -0.003 -0.002 0.001 0.002 0.003 -0.004 0.002 -0.002 0.002 -0.001 0.003 0.002 0.005 0.004 -0.003 -0.003 0.001 0.002 0.004 0.003 -0.001 0.005 0.002 0.001 -0.005 -0.003 0.001 0.001 -0.001 -0.000 0.001 0.004 0.001 -0.000 -0.003 0.000 0.004 -0.002 -0.002 0.001 0.002 -0.004 -0.000 -0.000 -0.001 0.002 0.005 -0.003 0.001 0.005 0.002 -0.005 0.002 0.002 0.004 0.004 -0.001 -0.004 0.004 -0.005 -0.004 0.003 -0.003 0.001 -0.000 -0.001 0.001 0.004 -0.004 -0.003 -0.004 -0.005 -0.000 0.005 0.003 -0.003 0.002 -0.004 0.004 
second 0.005 0.003 -0.000 0.001 -0.003 0.001 0.003 0.004 0.004 -0.005 -0.001 -0.004 -0.003 -0.005 -0.003 0.003 -0.001 -0.000 -0.002 -0.002 0.002 -0.006 0.000 0.004 -0.002 0.003 0.003 -0.004 0.003 -0.001 -0.001 0.000 -0.002 0.001 -0.001 -0.001 0.005 0.002 -0.002 -0.004 -0.004 -0.005 -0.000 -0.003 0.002 0.003 -0.000 0.001 0.005 -0.002 0.000 0.001 0.005 0.002 0.003 -0.001 -0.000 0.004 0.004 -0.001 0.003 -0.004 -0.001 0.005 -0.002 0.001 -0.000 0.001 0.001 0.000 0.007 0.004 0.002 -0.006 -0.001 0.004 0.003 -0.003 -0.000 0.009 0.004 0.004 0.005 0.000 -0.002 -0.001 0.006 0.002 -0.004 0.001 -0.006 0.008 0.002 0.004 0.007 -0.000 0.004 -0.005 -0.004 -0.002 
degree 0.003 0.000 -0.001 -0.004 0.003 0.003 0.005 0.005 -0.000 -0.005 -0.000 -0.005 -0.001 0.004 -0.004 -0.002 0.003 -0.002 0.001 -0.002 -0.003 -0.002 -0.001 0.004 -0.005 -0.001 -0.001 -0.000 0.004 0.005 -0.004 -0.002 0.001 0.002 0.000 -0.004 -0.003 0.004 0.004 0.004 -0.005 0.004 0.000 -0.003 -0.001 -0.002 0.001 0.003 0.000 0.003 0.004 0.000 0.005 -0.004 -0.005 -0.006 0.001 0.001 0.000 0.005 0.003 0.002 -0.004 -0.002 0.002 -0.001 0.003 0.004 -0.005 -0.001 0.006 0.003 -0.000 -0.004 0.001 0.002 0.001 -0.003 -0.001 0.007 -0.003 0.001 -0.004 -0.001 0.002 0.001 0.003 0.001 -0.003 -0.000 -0.001 0.001 0.002 0.001 0.006 -0.001 -0.003 -0.002 0.002 -0.004 
relative 0.000 0.002 -0.003 0.003 0.003 0.002 0.001 -0.003 0.003 0.003 0.005 -0.004 -0.003 -0.000 -0.006 -0.002 -0.003 0.005 -0.005 -0.005 0.003 -0.004 0.001 0.002 0.002 -0.001 0.004 -0.004 0.003 0.001 -0.003 -0.001 0.001 0.004 -0.001 0.002 0.003 0.003 -0.001 0.003 0.004 0.002 0.003 0.002 -0.002 0.002 -0.003 0.002 -0.003 0.003 -0.004 0.003 -0.001 0.001 -0.000 0.001 -0.003 0.002 0.002 -0.003 0.005 0.005 0.001 -0.003 0.003 0.000 -0.000 0.004 0.002 -0.005 -0.004 0.004 0.003 0.005 -0.005 0.004 -0.000 0.001 -0.002 -0.002 -0.001 0.003 -0.000 0.002 -0.002 -0.000 0.003 0.004 -0.005 -0.002 0.002 0.006 -0.002 -0.002 0.004 -0.002 0.000 -0.002 0.003 0.005 
identical -0.001 0.004 0.005 0.001 0.001 -0.001 0.001 0.001 0.001 -0.004 0.000 0.004 0.001 -0.004 -0.005 0.003 0.002 0.000 0.002 0.002 -0.000 -0.003 -0.002 -0.005 0.003 -0.001 -0.001 0.001 -0.002 0.005 0.004 0.003 0.005 0.002 -0.005 -0.002 -0.000 -0.001 -0.001 -0.003 0.002 0.001 -0.003 0.003 0.005 -0.002 0.000 0.005 0.001 0.004 -0.002 -0.000 -0.003 -0.006 0.003 0.004 0.003 0.001 0.003 -0.003 0.003 -0.004 0.004 -0.001 0.000 0.002 0.005 -0.004 -0.003 -0.003 0.003 -0.005 0.005 0.000 -0.001 -0.001 -0.001 -0.004 -0.002 -0.003 0.005 -0.003 0.003 -0.004 0.000 0.001 0.001 0.000 0.005 0.001 -0.005 -0.004 0.002 0.002 -0.000 0.001 -0.001 -0.004 -0.004 -0.004 
twin 0.000 0.004 0.004 0.001 -0.002 -0.004 -0.003 0.005 0.003 -0.002 0.004 0.001 0.003 -0.001 -0.002 0.003 -0.002 0.003 0.004 0.004 -0.003 -0.003 -0.004 0.000 0.002 0.001 0.005 0.001 0.001 0.005 -0.005 -0.004 0.001 -0.003 -0.001 0.004 -0.002 -0.004 0.001 -0.002 -0.001 -0.001 -0.003 0.001 -0.005 0.002 0.004 0.005 0.002 0.004 0.002 -0.001 -0.003 -0.004 0.001 -0.003 0.004 0.006 -0.004 0.004 -0.002 -0.001 -0.002 0.001 -0.003 0.004 -0.003 0.004 0.005 0.000 -0.000 -0.004 -0.000 -0.002 -0.004 0.004 0.006 -0.002 0.003 0.000 0.004 -0.001 0.004 0.003 -0.005 0.002 -0.003 -0.003 -0.003 0.003 0.001 -0.001 -0.005 -0.003 0.006 -0.004 0.000 -0.002 -0.001 -0.002 
adoptive 0.001 0.000 -0.001 -0.002 0.002 0.002 0.004 0.001 -0.005 -0.001 -0.003 -0.000 0.002 -0.005 -0.002 0.003 0.002 -0.002 -0.003 0.002 0.001 -0.004 0.000 0.000 -0.005 0.004 0.003 0.004 -0.000 -0.004 0.000 -0.003 0.001 0.002 -0.001 0.005 0.001 0.005 -0.002 -0.004 -0.003 -0.000 -0.004 -0.000 0.005 -0.005 0.002 0.005 0.004 0.001 0.004 -0.000 0.000 0.005 0.002 -0.002 -0.001 -0.001 0.002 0.004 -0.000 0.002 0.003 0.004 0.001 0.002 -0.004 -0.003 0.001 -0.001 -0.002 0.003 -0.002 0.005 -0.002 0.004 -0.000 -0.003 0.003 -0.002 0.003 -0.002 0.002 -0.005 -0.002 -0.002 0.004 0.000 0.001 -0.001 -0.001 0.003 -0.002 0.002 -0.002 -0.002 -0.003 -0.003 0.005 -0.002 
member -0.004 -0.003 0.002 -0.000 -0.001 0.006 0.007 -0.001 -0.004 -0.007 0.000 -0.006 0.004 -0.002 -0.006 0.004 0.008 0.002 -0.004 -0.004 -0.002 0.001 0.000 0.004 -0.003 -0.005 0.008 0.000 0.006 0.007 0.000 0.005 0.000 0.002 -0.003 -0.006 0.002 0.004 -0.002 -0.002 -0.004 -0.002 0.005 0.003 -0.004 0.001 -0.004 -0.002 0.003 -0.001 -0.005 0.005 0.002 -0.003 0.004 0.003 -0.002 0.007 0.001 0.000 -0.003 0.001 -0.005 0.004 -0.002 0.006 -0.003 0.001 -0.003 0.004 0.007 0.004 0.001 0.000 0.001 0.010 0.004 -0.003 0.001 0.009 0.001 -0.002 0.002 0.002 0.001 0.004 0.006 -0.003 0.005 -0.007 -0.002 0.007 0.003 -0.003 0.005 0.003 0.005 0.000 -0.000 -0.001 
witnessed 0.000 0.004 -0.001 0.002 -0.004 -0.001 -0.002 0.004 0.000 -0.003 0.003 -0.004 -0.004 -0.000 0.001 0.005 0.005 -0.004 0.002 -0.005 -0.003 0.003 -0.001 -0.003 0.004 0.004 -0.000 0.004 -0.002 0.001 0.002 -0.001 -0.001 0.003 -0.002 0.002 -0.002 0.000 0.004 -0.001 -0.001 0.003 0.004 0.001 0.001 0.004 0.002 0.001 -0.002 -0.001 -0.005 -0.003 0.005 0.002 -0.001 0.002 0.001 0.003 0.004 0.002 -0.002 0.003 -0.000 0.001 0.000 -0.003 0.004 -0.002 0.005 -0.002 -0.003 0.004 0.005 0.000 -0.001 0.005 -0.001 -0.003 0.004 0.003 0.001 0.004 0.002 -0.003 0.001 -0.002 -0.002 0.004 0.002 -0.003 0.001 -0.002 -0.000 -0.002 -0.003 -0.004 0.005 -0.005 -0.004 0.003 
violence 0.000 0.003 0.002 -0.004 0.001 0.003 0.001 0.005 0.000 -0.006 -0.003 0.003 0.002 0.004 0.002 -0.004 -0.000 0.002 -0.002 0.002 0.004 -0.002 -0.003 0.004 0.001 0.001 0.004 -0.003 -0.003 0.001 -0.000 -0.003 0.005 -0.000 -0.003 -0.003 0.003 -0.001 -0.003 -0.001 0.002 0.003 0.002 -0.002 -0.000 -0.002 -0.004 0.003 0.001 0.005 -0.002 0.003 -0.004 0.004 -0.000 0.003 0.002 0.001 0.004 -0.003 -0.004 0.000 -0.003 0.004 -0.003 0.004 -0.002 -0.001 -0.001 -0.003 0.005 -0.005 -0.004 0.001 -0.004 0.006 -0.001 -0.006 0.000 0.003 -0.004 0.006 0.005 0.001 -0.003 0.004 -0.002 -0.002 0.003 0.001 0.004 0.001 -0.001 0.000 -0.001 -0.000 0.004 0.002 -0.003 0.005 
suffers -0.002 0.002 0.003 -0.002 -0.005 0.003 -0.003 -0.004 0.004 0.002 0.002 0.002 -0.002 -0.001 0.002 0.005 -0.002 -0.001 0.002 -0.002 -0.003 -0.003 0.000 -0.000 -0.001 0.000 0.002 -0.002 0.002 -0.005 -0.004 0.003 -0.001 -0.000 -0.002 0.003 -0.002 -0.001 -0.004 -0.000 -0.003 -0.000 -0.000 0.003 -0.000 -0.001 0.004 -0.002 0.003 -0.001 0.001 -0.002 -0.004 0.003 0.002 -0.004 -0.003 0.001 -0.004 0.004 -0.001 -0.004 0.002 -0.002 -0.001 -0.001 -0.001 0.003 -0.000 -0.002 -0.000 -0.000 0.004 0.001 -0.003 0.002 -0.004 -0.000 0.003 -0.001 0.003 -0.001 -0.002 -0.001 -0.002 -0.001 0.000 0.004 0.002 -0.003 -0.001 -0.001 -0.001 0.005 -0.002 -0.004 0.005 0.004 -0.001 0.002 
from -0.002 -0.002 0.000 0.002 0.010 0.002 0.005 0.010 -0.004 -0.008 0.001 -0.007 -0.002 0.003 -0.008 0.009 0.012 0.004 -0.009 -0.006 0.008 -0.006 -0.008 -0.000 -0.003 -0.003 0.007 -0.003 -0.001 0.013 0.003 0.008 0.000 0.006 0.004 -0.007 0.007 -0.004 0.001 0.005 -0.002 -0.001 0.005 -0.001 0.003 -0.000 0.004 0.007 0.002 0.013 -0.004 0.005 0.008 -0.010 0.003 -0.006 0.003 0.011 0.002 -0.003 -0.001 -0.000 -0.000 0.004 -0.008 0.001 0.004 0.001 0.002 0.004 0.010 0.003 -0.001 -0.003 -0.007 0.012 0.008 -0.010 0.013 0.008 0.002 -0.000 0.002 -0.011 -0.003 -0.002 0.010 0.003 0.005 -0.004 -0.007 0.009 -0.006 0.004 0.011 0.009 0.004 0.001 0.000 0.001 
emotionally 0.003 0.003 -0.001 0.002 0.002 0.001 -0.003 0.001 0.004 -0.004 -0.002 -0.001 0.004 -0.001 0.003 -0.001 0.000 0.004 0.001 0.004 0.003 -0.003 0.002 -0.003 -0.002 -0.005 0.002 0.002 0.002 -0.002 -0.003 -0.002 -0.001 -0.003 0.000 -0.005 0.002 -0.005 -0.003 0.004 0.005 -0.002 -0.003 -0.003 0.003 0.003 -0.004 -0.005 -0.003 0.005 -0.005 0.002 -0.004 -0.005 -0.000 0.002 -0.002 -0.002 0.004 -0.003 -0.001 -0.003 0.000 -0.004 -0.004 0.004 0.004 -0.001 0.002 -0.001 -0.000 0.002 -0.001 -0.004 -0.003 -0.001 -0.001 0.002 -0.004 0.002 -0.004 0.003 0.004 0.001 -0.003 0.001 -0.002 0.002 -0.004 -0.004 0.001 0.001 0.000 0.000 0.003 0.001 0.003 0.003 0.003 0.004 
someone -0.003 0.000 -0.001 0.003 0.005 0.006 0.002 0.004 -0.004 -0.005 0.004 0.001 -0.005 -0.003 -0.002 0.004 0.008 0.005 -0.010 -0.002 0.002 -0.004 -0.008 0.003 0.002 -0.003 0.007 -0.002 0.004 0.008 -0.001 -0.001 0.001 0.001 0.001 -0.000 -0.000 -0.005 -0.005 0.005 0.003 0.001 0.007 0.003 -0.001 0.003 0.004 0.006 0.002 -0.001 -0.001 0.005 0.009 -0.005 0.004 -0.003 0.005 0.004 0.005 -0.003 0.001 0.002 -0.005 0.000 -0.006 0.002 0.004 0.002 0.002 -0.002 0.005 -0.002 0.002 -0.005 -0.003 0.003 -0.003 0.001 0.010 0.004 0.003 -0.002 0.000 -0.008 -0.006 0.003 0.006 -0.000 0.002 -0.006 -0.009 0.002 -0.005 -0.003 0.008 -0.001 0.005 -0.001 -0.007 -0.000 
living -0.000 -0.002 0.000 -0.005 -0.003 -0.001 0.001 0.003 -0.003 -0.003 -0.003 0.004 0.002 0.003 -0.004 0.001 0.005 0.001 0.003 -0.005 -0.002 0.004 -0.004 0.004 -0.003 0.004 -0.001 0.001 -0.004 -0.004 0.004 0.005 0.005 -0.001 0.001 -0.001 -0.003 -0.005 0.001 0.002 0.001 -0.005 -0.001 -0.001 -0.001 -0.003 0.003 0.000 0.005 0.005 0.001 0.005 0.000 0.003 0.005 -0.005 -0.000 0.000 -0.002 -0.002 0.002 0.000 -0.005 0.000 -0.003 0.004 -0.003 0.001 0.004 0.003 0.006 0.003 0.003 0.001 -0.005 -0.001 0.003 0.004 0.005 -0.002 0.004 -0.000 -0.004 0.004 -0.001 -0.002 0.004 0.003 0.004 0.003 0.003 -0.000 0.001 0.005 -0.000 0.005 -0.000 0.004 0.003 0.004 
the 0.001 -0.002 0.001 0.005 0.007 0.014 0.004 0.016 0.004 -0.019 0.004 -0.012 -0.008 0.000 -0.016 0.010 0.019 0.004 -0.020 -0.009 0.010 -0.002 -0.011 0.001 0.005 0.005 0.024 -0.002 0.004 0.018 -0.002 0.004 0.015 0.011 0.002 -0.008 0.002 0.004 -0.004 0.006 -0.002 0.001 0.007 -0.003 -0.001 -0.003 0.005 0.008 0.010 0.018 -0.009 0.005 0.013 -0.022 -0.001 -0.014 0.010 0.026 0.005 -0.002 -0.004 -0.001 0.000 0.002 -0.006 0.004 0.006 0.012 0.000 0.000 0.018 0.004 0.007 -0.008 -0.020 0.026 0.000 -0.016 0.023 0.020 -0.000 0.012 0.010 -0.008 -0.004 0.002 0.019 0.006 0.006 -0.011 -0.016 0.024 -0.005 -0.000 0.016 0.006 0.009 -0.003 -0.011 0.003 
same -0.004 -0.003 -0.004 0.003 -0.001 -0.000 0.002 0.003 0.005 -0.000 0.004 0.000 0.003 0.001 -0.005 0.001 0.006 -0.000 -0.005 0.004 -0.002 0.004 -0.002 0.003 0.001 0.001 0.004 0.002 0.004 0.006 -0.004 0.001 0.002 0.001 0.003 -0.003 -0.004 -0.003 -0.000 -0.002 -0.002 0.003 -0.002 0.004 -0.001 0.002 0.004 0.002 0.001 -0.002 -0.004 0.002 0.006 -0.005 0.000 -0.001 0.004 0.002 0.002 0.001 0.004 0.002 -0.003 0.002 0.001 -0.002 -0.002 -0.002 -0.001 0.005 -0.003 0.002 0.002 0.000 0.002 0.003 0.004 -0.005 -0.001 -0.001 -0.001 0.004 0.001 -0.004 -0.004 -0.002 -0.000 -0.002 0.001 0.004 -0.002 -0.003 -0.004 0.003 0.006 -0.000 -0.004 -0.005 -0.003 0.004 
home 0.001 -0.005 0.001 -0.000 0.004 -0.002 -0.002 0.005 0.001 0.001 0.003 0.004 0.002 -0.002 0.003 -0.000 -0.003 -0.001 -0.000 -0.004 0.005 -0.005 0.003 0.000 0.002 -0.004 -0.000 -0.004 -0.001 -0.002 -0.002 -0.000 0.000 0.005 0.002 -0.005 -0.003 -0.004 0.001 0.004 -0.002 0.003 0.003 0.000 -0.002 -0.000 -0.005 -0.004 0.003 0.002 -0.005 -0.002 -0.004 -0.006 -0.001 -0.004 0.004 0.003 0.004 0.003 -0.004 -0.004 0.004 -0.001 -0.002 0.004 -0.002 -0.003 -0.003 0.004 0.004 0.000 -0.003 0.004 -0.006 -0.000 0.004 -0.006 0.007 0.002 0.004 0.006 -0.002 -0.005 -0.003 0.003 0.000 0.000 0.002 -0.004 -0.005 0.001 -0.005 0.005 0.004 -0.000 0.003 -0.001 -0.001 0.004 
name 0.005 -0.005 0.001 -0.001 -0.003 -0.001 -0.002 0.002 -0.002 -0.008 0.004 -0.001 0.000 0.001 -0.005 0.000 0.003 0.005 -0.005 -0.001 0.001 0.002 0.004 -0.005 -0.005 -0.004 0.006 -0.004 0.003 0.007 0.002 0.005 0.001 -0.003 0.001 0.002 0.005 -0.000 0.004 0.005 -0.003 -0.001 0.005 -0.002 -0.003 -0.003 -0.001 0.003 -0.001 0.000 0.003 0.005 0.001 -0.001 -0.001 -0.001 0.006 0.006 0.006 0.004 -0.001 0.001 -0.005 -0.002 -0.006 0.006 -0.004 0.002 -0.003 0.003 0.002 0.003 -0.001 -0.001 -0.006 -0.001 -0.000 -0.003 -0.001 0.008 -0.003 0.001 0.000 -0.004 0.000 -0.000 0.001 0.005 0.005 0.000 -0.004 0.002 0.003 -0.002 0.005 0.001 0.006 0.002 -0.006 -0.004 
inflicted 0.001 -0.004 0.003 0.003 -0.004 -0.003 0.004 -0.002 -0.000 0.000 -0.001 -0.002 -0.005 0.001 -0.005 -0.002 -0.004 -0.003 0.001 0.004 -0.004 -0.000 0.004 0.002 0.002 -0.000 0.005 -0.004 -0.001 -0.003 -0.000 -0.001 0.001 -0.003 -0.001 0.002 -0.004 -0.001 -0.000 -0.004 -0.005 -0.004 0.005 -0.005 -0.002 -0.001 0.000 -0.003 0.003 0.002 -0.003 -0.005 0.000 0.002 -0.002 -0.004 0.006 0.003 -0.001 0.003 -0.004 -0.001 0.004 0.001 -0.002 -0.002 0.005 -0.003 0.000 0.004 0.003 0.002 0.002 -0.004 -0.001 0.003 -0.004 -0.000 0.003 0.003 -0.002 0.003 0.002 -0.004 0.003 -0.005 0.001 0.005 0.002 -0.004 0.003 0.002 -0.003 -0.005 0.005 -0.003 -0.004 0.000 0.003 -0.002 
step 0.002 0.000 -0.003 0.004 0.001 0.002 -0.001 0.004 0.004 -0.001 0.004 0.002 0.004 0.001 0.000 -0.003 -0.002 0.003 0.004 0.004 -0.001 -0.000 -0.001 0.001 0.005 -0.001 -0.002 -0.001 -0.001 -0.001 0.003 -0.005 -0.003 0.002 -0.005 0.001 0.003 0.004 0.004 -0.000 0.000 0.000 0.002 0.004 -0.001 0.002 0.003 -0.000 -0.003 0.001 0.005 0.001 0.002 -0.000 -0.002 -0.002 -0.003 0.004 0.004 -0.001 -0.003 0.004 -0.004 -0.005 -0.004 0.002 0.001 0.004 0.004 0.000 -0.002 0.003 -0.002 -0.004 0.001 0.002 0.002 -0.001 -0.002 -0.004 0.004 0.004 -0.000 0.003 -0.002 0.000 0.004 -0.002 -0.003 0.000 -0.004 0.002 0.004 -0.003 0.004 0.000 -0.001 0.003 -0.004 -0.001 
blood -0.002 -0.000 -0.004 0.003 0.004 -0.002 0.002 -0.003 0.001 0.002 -0.003 0.005 0.004 -0.000 0.003 0.004 0.002 0.000 0.001 -0.004 -0.001 0.001 -0.004 0.001 -0.001 0.000 0.004 -0.005 0.003 -0.003 0.001 -0.004 0.003 -0.005 -0.002 0.004 0.003 0.001 -0.002 0.004 -0.003 0.001 -0.004 0.001 0.003 0.004 0.004 -0.003 -0.001 0.004 0.002 0.001 -0.003 0.001 -0.004 -0.004 0.004 0.005 -0.000 0.001 0.000 0.002 -0.005 0.003 -0.004 0.004 0.003 0.004 -0.003 0.002 -0.000 -0.002 0.002 0.001 -0.002 0.003 0.004 0.001 0.004 0.005 0.001 -0.003 -0.002 -0.004 -0.002 0.005 -0.001 0.005 -0.004 0.002 0.001 -0.001 0.005 -0.004 0.001 0.001 0.002 -0.002 0.004 -0.001 
nephew 0.004 0.001 -0.003 -0.004 -0.003 0.002 0.002 0.003 -0.005 -0.004 0.002 -0.002 -0.002 -0.002 0.004 0.001 0.003 -0.004 0.001 -0.003 0.004 -0.002 0.004 0.001 0.005 -0.003 -0.002 0.003 0.002 -0.002 0.001 0.000 -0.005 0.004 0.004 -0.005 -0.004 -0.002 -0.003 -0.001 -0.005 -0.001 -0.002 0.000 0.003 0.003 -0.002 0.004 -0.002 0.004 0.004 0.001 0.000 0.002 -0.003 -0.001 0.000 -0.004 -0.002 -0.003 -0.003 -0.002 -0.005 -0.005 -0.001 0.004 -0.002 0.002 0.002 -0.001 -0.003 -0.001 0.004 -0.000 0.000 0.004 -0.001 -0.002 -0.003 0.004 0.002 0.003 -0.003 -0.004 0.003 -0.005 -0.001 0.004 -0.003 0.000 0.001 0.004 -0.004 0.002 0.001 -0.002 -0.004 0.004 -0.004 -0.003 
targets -0.004 0.004 0.004 -0.004 -0.000 -0.002 -0.005 0.001 0.003 0.003 -0.002 -0.003 -0.005 -0.002 0.002 -0.000 -0.002 0.001 -0.003 -0.004 -0.003 0.000 0.004 -0.004 0.000 0.002 -0.002 -0.003 -0.002 0.001 0.002 0.002 0.004 0.003 -0.003 0.002 0.003 0.002 -0.005 0.004 -0.002 -0.004 -0.003 0.002 -0.001 0.003 0.005 0.004 0.003 0.001 0.002 0.005 0.001 -0.000 -0.001 -0.001 -0.001 -0.001 -0.002 0.001 0.002 -0.004 -0.002 0.001 0.004 -0.004 0.005 -0.003 -0.004 0.004 -0.001 0.003 0.000 0.005 -0.001 0.003 0.005 -0.005 -0.001 0.004 -0.002 0.003 -0.001 0.002 0.004 0.002 0.002 -0.003 0.004 -0.004 0.003 0.002 -0.001 0.000 -0.000 -0.002 -0.002 -0.004 0.003 -0.003 
grandchild -0.005 -0.000 -0.004 0.000 -0.003 0.002 -0.005 -0.003 0.004 -0.001 0.003 0.003 -0.001 0.004 -0.004 -0.001 -0.002 -0.003 -0.003 0.002 -0.004 -0.003 -0.003 -0.005 -0.005 0.003 -0.001 0.002 -0.005 0.003 0.001 -0.002 -0.001 0.001 -0.003 -0.004 -0.001 0.003 -0.001 -0.004 0.002 0.005 0.002 -0.003 -0.005 -0.004 0.002 0.002 0.001 -0.002 -0.003 -0.002 -0.000 0.002 -0.001 0.005 -0.004 0.003 0.002 0.004 0.000 0.004 0.000 0.002 0.003 0.005 0.004 -0.002 0.001 -0.004 0.001 0.005 0.000 0.002 -0.002 0.002 0.001 0.005 -0.001 -0.003 0.000 -0.004 0.001 0.003 -0.005 0.001 -0.004 -0.002 -0.001 -0.001 -0.003 -0.002 0.001 -0.004 -0.001 -0.004 0.001 -0.002 0.004 -0.004 
attempted 0.000 -0.003 -0.001 -0.003 -0.003 -0.004 -0.004 0.004 0.002 0.003 -0.002 0.004 0.001 -0.002 -0.002 -0.001 -0.002 -0.002 -0.002 -0.002 -0.001 0.005 -0.000 0.003 0.002 0.002 0.004 0.003 -0.005 -0.000 -0.001 0.003 -0.001 -0.000 -0.003 0.001 -0.004 -0.001 0.004 0.003 0.002 -0.004 -0.000 -0.000 0.004 0.001 0.004 -0.003 0.001 0.003 -0.001 0.002 -0.001 0.002 0.000 -0.002 0.001 0.005 -0.003 0.001 0.005 0.001 0.003 -0.000 -0.003 -0.004 -0.001 -0.005 -0.003 0.002 -0.001 -0.004 0.001 0.003 -0.001 -0.005 0.004 -0.002 0.003 -0.000 -0.003 0.002 0.003 0.002 0.004 0.002 0.004 -0.004 -0.003 0.001 -0.000 0.003 0.004 -0.001 -0.004 0.001 0.001 -0.004 0.005 0.004 
younger -0.001 -0.002 -0.002 -0.000 0.003 -0.001 -0.004 -0.000 0.004 -0.005 0.001 0.002 -0.002 0.003 0.001 -0.004 -0.004 -0.003 0.002 -0.005 -0.002 -0.001 0.002 -0.002 -0.001 0.005 -0.003 0.004 0.001 0.001 -0.002 -0.004 -0.003 -0.003 0.002 0.001 -0.001 0.000 -0.002 0.005 -0.000 0.005 0.003 0.001 0.001 -0.000 -0.005 0.001 0.002 -0.003 0.000 -0.001 0.001 -0.002 -0.004 -0.003 -0.004 -0.001 0.005 0.005 -0.002 0.001 0.001 -0.000 -0.000 0.002 0.004 -0.001 -0.000 0.004 -0.004 0.002 0.002 -0.004 0.002 0.002 0.004 0.004 0.000 0.005 0.000 -0.002 0.004 0.001 -0.002 -0.001 0.005 -0.005 -0.003 -0.003 -0.005 -0.001 0.001 -0.003 0.003 0.003 0.001 0.001 0.001 0.001 
result -0.001 0.004 0.002 -0.004 -0.004 -0.002 0.003 -0.001 0.002 -0.002 0.005 -0.001 0.002 -0.005 0.001 -0.001 0.005 0.002 0.000 -0.002 -0.000 -0.004 -0.004 -0.003 -0.005 -0.004 -0.001 0.002 0.002 0.004 -0.005 -0.003 0.006 0.005 -0.004 -0.002 -0.003 0.003 -0.000 -0.002 0.001 -0.003 -0.002 0.001 -0.003 -0.002 -0.002 0.002 0.003 0.002 0.001 -0.002 0.005 0.000 -0.004 -0.002 0.003 0.007 0.003 -0.004 0.001 0.002 0.001 0.004 0.001 -0.000 -0.001 -0.000 0.004 0.004 0.001 -0.002 0.003 0.003 0.001 -0.002 -0.003 -0.001 0.001 0.006 -0.000 0.002 0.002 -0.006 -0.004 0.001 -0.001 0.005 0.000 0.002 0.000 0.004 0.001 0.000 0.005 0.003 -0.002 -0.004 -0.005 0.000 
son 0.005 -0.005 0.004 0.004 -0.004 0.001 0.000 -0.005 -0.003 0.002 -0.002 0.001 0.001 0.005 0.001 0.001 0.003 0.002 0.000 0.002 0.001 -0.005 0.005 -0.002 -0.002 0.003 -0.004 0.004 -0.002 -0.001 0.005 0.003 -0.000 0.002 0.002 0.002 0.005 -0.004 -0.004 0.002 -0.004 -0.003 0.002 -0.002 0.002 0.001 0.001 -0.005 -0.005 0.004 -0.002 -0.005 0.002 -0.001 -0.004 -0.005 -0.003 -0.005 0.000 -0.001 -0.002 0.004 -0.000 0.001 0.004 0.005 -0.003 0.003 -0.003 0.003 0.002 -0.003 -0.001 0.002 -0.001 0.002 0.003 0.004 -0.004 -0.001 -0.003 0.004 0.004 -0.004 -0.003 0.004 0.001 0.003 0.004 -0.002 -0.002 -0.002 -0.002 0.001 0.003 0.001 0.003 -0.003 0.000 0.002 
swore -0.002 -0.000 -0.001 0.005 -0.004 -0.004 0.001 0.004 0.004 -0.005 -0.004 0.002 -0.004 -0.000 -0.004 -0.003 -0.004 -0.002 0.004 -0.004 -0.004 -0.001 -0.003 -0.001 -0.003 -0.002 -0.002 0.000 -0.003 0.004 -0.004 0.002 -0.002 0.004 -0.003 -0.001 -0.001 0.004 0.001 0.001 -0.004 0.000 -0.001 0.000 0.002 -0.003 -0.002 -0.004 0.004 0.002 -0.000 0.001 -0.001 -0.003 -0.003 0.000 0.002 -0.003 -0.004 -0.005 0.002 -0.004 -0.002 -0.005 -0.004 -0.000 0.004 0.003 -0.000 -0.002 0.005 0.005 0.000 0.002 0.003 0.004 0.005 -0.001 -0.002 0.001 -0.004 -0.002 -0.003 -0.002 -0.005 -0.002 -0.003 -0.005 0.002 -0.000 0.002 -0.001 0.003 0.001 -0.002 0.001 0.004 0.004 0.002 0.004 
at 0.004 -0.001 0.003 0.001 0.013 0.009 0.008 0.012 0.001 -0.013 0.004 -0.006 -0.001 -0.005 -0.016 0.010 0.011 0.007 -0.014 -0.008 0.000 -0.008 -0.009 0.002 0.004 -0.003 0.018 0.002 -0.000 0.012 0.005 0.005 0.009 0.007 0.006 -0.002 0.002 -0.002 -0.006 0.003 -0.006 -0.003 0.009 -0.002 0.003 -0.008 0.008 0.007 0.007 0.011 -0.005 0.003 0.006 -0.011 0.004 -0.004 0.008 0.018 0.008 0.007 -0.009 0.004 -0.004 -0.000 -0.005 0.010 0.010 0.008 -0.005 -0.005 0.017 0.001 0.003 -0.007 -0.015 0.024 0.003 -0.006 0.020 0.023 -0.001 0.012 0.011 -0.009 -0.003 -0.006 0.018 0.007 0.001 -0.009 -0.009 0.020 -0.007 -0.002 0.014 0.004 0.002 -0.002 -0.010 0.009 
